FANN_FLO_2.1
num_layers=3
learning_rate=0.700000
connection_rate=1.000000
network_type=0
learning_momentum=0.000000
training_algorithm=2
train_error_function=1
train_stop_function=0
cascade_output_change_fraction=0.010000
quickprop_decay=-0.000100
quickprop_mu=1.750000
rprop_increase_factor=1.200000
rprop_decrease_factor=0.500000
rprop_delta_min=0.000000
rprop_delta_max=50.000000
rprop_delta_zero=0.100000
cascade_output_stagnation_epochs=12
cascade_candidate_change_fraction=0.010000
cascade_candidate_stagnation_epochs=12
cascade_max_out_epochs=150
cascade_min_out_epochs=50
cascade_max_cand_epochs=150
cascade_min_cand_epochs=50
cascade_num_candidate_groups=2
bit_fail_limit=3.49999994039535522461e-01
cascade_candidate_limit=1.00000000000000000000e+03
cascade_weight_multiplier=4.00000005960464477539e-01
cascade_activation_functions_count=10
cascade_activation_functions=3 5 7 8 10 11 14 15 16 17 
cascade_activation_steepnesses_count=4
cascade_activation_steepnesses=2.50000000000000000000e-01 5.00000000000000000000e-01 7.50000000000000000000e-01 1.00000000000000000000e+00 
layer_sizes=99 2 2 
scale_included=0
neurons (num_inputs, activation_function, activation_steepness)=(0, 0, 0.00000000000000000000e+00) (0, 0, 0.00000000000000000000e+00) (0, 0, 0.00000000000000000000e+00) (0, 0, 0.00000000000000000000e+00) (0, 0, 0.00000000000000000000e+00) (0, 0, 0.00000000000000000000e+00) (0, 0, 0.00000000000000000000e+00) (0, 0, 0.00000000000000000000e+00) (0, 0, 0.00000000000000000000e+00) (0, 0, 0.00000000000000000000e+00) (0, 0, 0.00000000000000000000e+00) (0, 0, 0.00000000000000000000e+00) (0, 0, 0.00000000000000000000e+00) (0, 0, 0.00000000000000000000e+00) (0, 0, 0.00000000000000000000e+00) (0, 0, 0.00000000000000000000e+00) (0, 0, 0.00000000000000000000e+00) (0, 0, 0.00000000000000000000e+00) (0, 0, 0.00000000000000000000e+00) (0, 0, 0.00000000000000000000e+00) (0, 0, 0.00000000000000000000e+00) (0, 0, 0.00000000000000000000e+00) (0, 0, 0.00000000000000000000e+00) (0, 0, 0.00000000000000000000e+00) (0, 0, 0.00000000000000000000e+00) (0, 0, 0.00000000000000000000e+00) (0, 0, 0.00000000000000000000e+00) (0, 0, 0.00000000000000000000e+00) (0, 0, 0.00000000000000000000e+00) (0, 0, 0.00000000000000000000e+00) (0, 0, 0.00000000000000000000e+00) (0, 0, 0.00000000000000000000e+00) (0, 0, 0.00000000000000000000e+00) (0, 0, 0.00000000000000000000e+00) (0, 0, 0.00000000000000000000e+00) (0, 0, 0.00000000000000000000e+00) (0, 0, 0.00000000000000000000e+00) (0, 0, 0.00000000000000000000e+00) (0, 0, 0.00000000000000000000e+00) (0, 0, 0.00000000000000000000e+00) (0, 0, 0.00000000000000000000e+00) (0, 0, 0.00000000000000000000e+00) (0, 0, 0.00000000000000000000e+00) (0, 0, 0.00000000000000000000e+00) (0, 0, 0.00000000000000000000e+00) (0, 0, 0.00000000000000000000e+00) (0, 0, 0.00000000000000000000e+00) (0, 0, 0.00000000000000000000e+00) (0, 0, 0.00000000000000000000e+00) (0, 0, 0.00000000000000000000e+00) (0, 0, 0.00000000000000000000e+00) (0, 0, 0.00000000000000000000e+00) (0, 0, 0.00000000000000000000e+00) (0, 0, 0.00000000000000000000e+00) (0, 0, 0.00000000000000000000e+00) (0, 0, 0.00000000000000000000e+00) (0, 0, 0.00000000000000000000e+00) (0, 0, 0.00000000000000000000e+00) (0, 0, 0.00000000000000000000e+00) (0, 0, 0.00000000000000000000e+00) (0, 0, 0.00000000000000000000e+00) (0, 0, 0.00000000000000000000e+00) (0, 0, 0.00000000000000000000e+00) (0, 0, 0.00000000000000000000e+00) (0, 0, 0.00000000000000000000e+00) (0, 0, 0.00000000000000000000e+00) (0, 0, 0.00000000000000000000e+00) (0, 0, 0.00000000000000000000e+00) (0, 0, 0.00000000000000000000e+00) (0, 0, 0.00000000000000000000e+00) (0, 0, 0.00000000000000000000e+00) (0, 0, 0.00000000000000000000e+00) (0, 0, 0.00000000000000000000e+00) (0, 0, 0.00000000000000000000e+00) (0, 0, 0.00000000000000000000e+00) (0, 0, 0.00000000000000000000e+00) (0, 0, 0.00000000000000000000e+00) (0, 0, 0.00000000000000000000e+00) (0, 0, 0.00000000000000000000e+00) (0, 0, 0.00000000000000000000e+00) (0, 0, 0.00000000000000000000e+00) (0, 0, 0.00000000000000000000e+00) (0, 0, 0.00000000000000000000e+00) (0, 0, 0.00000000000000000000e+00) (0, 0, 0.00000000000000000000e+00) (0, 0, 0.00000000000000000000e+00) (0, 0, 0.00000000000000000000e+00) (0, 0, 0.00000000000000000000e+00) (0, 0, 0.00000000000000000000e+00) (0, 0, 0.00000000000000000000e+00) (0, 0, 0.00000000000000000000e+00) (0, 0, 0.00000000000000000000e+00) (0, 0, 0.00000000000000000000e+00) (0, 0, 0.00000000000000000000e+00) (0, 0, 0.00000000000000000000e+00) (0, 0, 0.00000000000000000000e+00) (0, 0, 0.00000000000000000000e+00) (0, 0, 0.00000000000000000000e+00) (0, 0, 0.00000000000000000000e+00) (99, 5, 5.00000000000000000000e-01) (0, 5, 0.00000000000000000000e+00) (2, 5, 5.00000000000000000000e-01) (0, 5, 0.00000000000000000000e+00) 
connections (connected_to_neuron, weight)=(0, -5.89070141315460205078e-01) (1, 7.62222290039062500000e-01) (2, 3.04107046127319335938e+00) (3, 3.20975589752197265625e+00) (4, 3.10261440277099609375e+00) (5, -6.12431168556213378906e-01) (6, 8.33410739898681640625e-01) (7, 3.06834840774536132812e+00) (8, 3.07367944717407226562e+00) (9, -4.28937703371047973633e-01) (10, 3.17882156372070312500e+00) (11, 1.68305945396423339844e+00) (12, 1.69885635375976562500e+00) (13, 3.16342401504516601562e+00) (14, 9.04156804084777832031e-01) (15, 1.64916825294494628906e+00) (16, 3.05274343490600585938e+00) (17, 3.06375503540039062500e+00) (18, 3.15945816040039062500e+00) (19, 1.72335290908813476562e+00) (20, 3.09186935424804687500e+00) (21, -5.96077144145965576172e-01) (22, 1.77261662483215332031e+00) (23, 3.05044412612915039062e+00) (24, -9.48500931262969970703e-02) (25, -5.02166450023651123047e-01) (26, -1.20082879066467285156e+00) (27, -4.50452506542205810547e-01) (28, 3.01533555984497070312e+00) (29, -5.22503137588500976562e-01) (30, 1.70149207115173339844e+00) (31, -5.88777363300323486328e-01) (32, -5.11653542518615722656e-01) (33, 3.16886806488037109375e+00) (34, 3.04595136642456054688e+00) (35, -6.24081850051879882812e-01) (36, 3.18140983581542968750e+00) (37, 3.12798929214477539062e+00) (38, -5.70776045322418212891e-01) (39, -1.32293081283569335938e+00) (40, -5.15991330146789550781e-01) (41, 3.03301811218261718750e+00) (42, 3.14941167831420898438e+00) (43, 7.85515785217285156250e-01) (44, -4.58616137504577636719e-01) (45, 3.10219573974609375000e+00) (46, -5.15355765819549560547e-01) (47, 1.57775187492370605469e+00) (48, 3.15090799331665039062e+00) (49, 3.06907463073730468750e+00) (50, 3.16875886917114257812e+00) (51, 3.02773475646972656250e+00) (52, -5.42045116424560546875e-01) (53, 3.16768074035644531250e+00) (54, -5.76879560947418212891e-01) (55, 3.18114900588989257812e+00) (56, -5.49528479576110839844e-01) (57, 3.21024131774902343750e+00) (58, -4.84346270561218261719e-01) (59, 3.09077978134155273438e+00) (60, -5.27304470539093017578e-01) (61, -5.56548535823822021484e-01) (62, 3.12697505950927734375e+00) (63, 3.02603006362915039062e+00) (64, -6.02723240852355957031e-01) (65, 1.71653509140014648438e+00) (66, -6.13094568252563476562e-01) (67, 3.20365905761718750000e+00) (68, -5.69185614585876464844e-01) (69, -5.58897972106933593750e-01) (70, 3.02866268157958984375e+00) (71, 9.16141033172607421875e-01) (72, -5.40922760963439941406e-01) (73, -4.76984024047851562500e-01) (74, 1.77260613441467285156e+00) (75, -5.74566245079040527344e-01) (76, -5.89831233024597167969e-01) (77, 3.12357139587402343750e+00) (78, 3.06950664520263671875e+00) (79, 9.22379136085510253906e-01) (80, 3.17760324478149414062e+00) (81, -6.16792917251586914062e-01) (82, -4.41274404525756835938e-01) (83, 3.06053066253662109375e+00) (84, -4.64154988527297973633e-01) (85, 1.60548591613769531250e+00) (86, 3.02663707733154296875e+00) (87, 7.87634491920471191406e-01) (88, 1.60068440437316894531e+00) (89, 1.72591519355773925781e+00) (90, -1.25127568840980529785e-01) (91, 3.13970088958740234375e+00) (92, -3.19439792633056640625e+00) (93, -3.19111156463623046875e+00) (94, -3.07939720153808593750e+00) (95, -1.30504012107849121094e+00) (96, -3.04827117919921875000e+00) (97, -3.06751918792724609375e+00) (98, -7.30783343315124511719e-02) (99, -3.19248390197753906250e+00) (100, 6.39194250106811523438e-03) 
