FANN_FLO_2.1
num_layers=3
learning_rate=0.700000
connection_rate=1.000000
network_type=0
learning_momentum=0.000000
training_algorithm=2
train_error_function=1
train_stop_function=0
cascade_output_change_fraction=0.010000
quickprop_decay=-0.000100
quickprop_mu=1.750000
rprop_increase_factor=1.200000
rprop_decrease_factor=0.500000
rprop_delta_min=0.000000
rprop_delta_max=50.000000
rprop_delta_zero=0.100000
cascade_output_stagnation_epochs=12
cascade_candidate_change_fraction=0.010000
cascade_candidate_stagnation_epochs=12
cascade_max_out_epochs=150
cascade_min_out_epochs=50
cascade_max_cand_epochs=150
cascade_min_cand_epochs=50
cascade_num_candidate_groups=2
bit_fail_limit=3.49999994039535522461e-01
cascade_candidate_limit=1.00000000000000000000e+03
cascade_weight_multiplier=4.00000005960464477539e-01
cascade_activation_functions_count=10
cascade_activation_functions=3 5 7 8 10 11 14 15 16 17 
cascade_activation_steepnesses_count=4
cascade_activation_steepnesses=2.50000000000000000000e-01 5.00000000000000000000e-01 7.50000000000000000000e-01 1.00000000000000000000e+00 
layer_sizes=99 2 2 
scale_included=0
neurons (num_inputs, activation_function, activation_steepness)=(0, 0, 0.00000000000000000000e+00) (0, 0, 0.00000000000000000000e+00) (0, 0, 0.00000000000000000000e+00) (0, 0, 0.00000000000000000000e+00) (0, 0, 0.00000000000000000000e+00) (0, 0, 0.00000000000000000000e+00) (0, 0, 0.00000000000000000000e+00) (0, 0, 0.00000000000000000000e+00) (0, 0, 0.00000000000000000000e+00) (0, 0, 0.00000000000000000000e+00) (0, 0, 0.00000000000000000000e+00) (0, 0, 0.00000000000000000000e+00) (0, 0, 0.00000000000000000000e+00) (0, 0, 0.00000000000000000000e+00) (0, 0, 0.00000000000000000000e+00) (0, 0, 0.00000000000000000000e+00) (0, 0, 0.00000000000000000000e+00) (0, 0, 0.00000000000000000000e+00) (0, 0, 0.00000000000000000000e+00) (0, 0, 0.00000000000000000000e+00) (0, 0, 0.00000000000000000000e+00) (0, 0, 0.00000000000000000000e+00) (0, 0, 0.00000000000000000000e+00) (0, 0, 0.00000000000000000000e+00) (0, 0, 0.00000000000000000000e+00) (0, 0, 0.00000000000000000000e+00) (0, 0, 0.00000000000000000000e+00) (0, 0, 0.00000000000000000000e+00) (0, 0, 0.00000000000000000000e+00) (0, 0, 0.00000000000000000000e+00) (0, 0, 0.00000000000000000000e+00) (0, 0, 0.00000000000000000000e+00) (0, 0, 0.00000000000000000000e+00) (0, 0, 0.00000000000000000000e+00) (0, 0, 0.00000000000000000000e+00) (0, 0, 0.00000000000000000000e+00) (0, 0, 0.00000000000000000000e+00) (0, 0, 0.00000000000000000000e+00) (0, 0, 0.00000000000000000000e+00) (0, 0, 0.00000000000000000000e+00) (0, 0, 0.00000000000000000000e+00) (0, 0, 0.00000000000000000000e+00) (0, 0, 0.00000000000000000000e+00) (0, 0, 0.00000000000000000000e+00) (0, 0, 0.00000000000000000000e+00) (0, 0, 0.00000000000000000000e+00) (0, 0, 0.00000000000000000000e+00) (0, 0, 0.00000000000000000000e+00) (0, 0, 0.00000000000000000000e+00) (0, 0, 0.00000000000000000000e+00) (0, 0, 0.00000000000000000000e+00) (0, 0, 0.00000000000000000000e+00) (0, 0, 0.00000000000000000000e+00) (0, 0, 0.00000000000000000000e+00) (0, 0, 0.00000000000000000000e+00) (0, 0, 0.00000000000000000000e+00) (0, 0, 0.00000000000000000000e+00) (0, 0, 0.00000000000000000000e+00) (0, 0, 0.00000000000000000000e+00) (0, 0, 0.00000000000000000000e+00) (0, 0, 0.00000000000000000000e+00) (0, 0, 0.00000000000000000000e+00) (0, 0, 0.00000000000000000000e+00) (0, 0, 0.00000000000000000000e+00) (0, 0, 0.00000000000000000000e+00) (0, 0, 0.00000000000000000000e+00) (0, 0, 0.00000000000000000000e+00) (0, 0, 0.00000000000000000000e+00) (0, 0, 0.00000000000000000000e+00) (0, 0, 0.00000000000000000000e+00) (0, 0, 0.00000000000000000000e+00) (0, 0, 0.00000000000000000000e+00) (0, 0, 0.00000000000000000000e+00) (0, 0, 0.00000000000000000000e+00) (0, 0, 0.00000000000000000000e+00) (0, 0, 0.00000000000000000000e+00) (0, 0, 0.00000000000000000000e+00) (0, 0, 0.00000000000000000000e+00) (0, 0, 0.00000000000000000000e+00) (0, 0, 0.00000000000000000000e+00) (0, 0, 0.00000000000000000000e+00) (0, 0, 0.00000000000000000000e+00) (0, 0, 0.00000000000000000000e+00) (0, 0, 0.00000000000000000000e+00) (0, 0, 0.00000000000000000000e+00) (0, 0, 0.00000000000000000000e+00) (0, 0, 0.00000000000000000000e+00) (0, 0, 0.00000000000000000000e+00) (0, 0, 0.00000000000000000000e+00) (0, 0, 0.00000000000000000000e+00) (0, 0, 0.00000000000000000000e+00) (0, 0, 0.00000000000000000000e+00) (0, 0, 0.00000000000000000000e+00) (0, 0, 0.00000000000000000000e+00) (0, 0, 0.00000000000000000000e+00) (0, 0, 0.00000000000000000000e+00) (0, 0, 0.00000000000000000000e+00) (0, 0, 0.00000000000000000000e+00) (0, 0, 0.00000000000000000000e+00) (99, 5, 5.00000000000000000000e-01) (0, 5, 0.00000000000000000000e+00) (2, 5, 5.00000000000000000000e-01) (0, 5, 0.00000000000000000000e+00) 
connections (connected_to_neuron, weight)=(0, -3.39270043373107910156e+00) (1, 7.88135814666748046875e+00) (2, 1.54474830627441406250e+01) (3, 1.53948917388916015625e+01) (4, 1.54698143005371093750e+01) (5, -3.38423514366149902344e+00) (6, 2.95107555389404296875e+00) (7, 1.54622802734375000000e+01) (8, 1.54029197692871093750e+01) (9, -3.85201621055603027344e+00) (10, 1.53985805511474609375e+01) (11, 7.92504978179931640625e+00) (12, 7.79872369766235351562e+00) (13, 1.52887496948242187500e+01) (14, 3.56792545318603515625e+00) (15, 7.78237867355346679688e+00) (16, 1.53556938171386718750e+01) (17, 1.54733982086181640625e+01) (18, 1.54684066772460937500e+01) (19, 7.83677959442138671875e+00) (20, 1.54490089416503906250e+01) (21, -1.00429069995880126953e+00) (22, 7.80015468597412109375e+00) (23, 1.53745937347412109375e+01) (24, 1.24631237983703613281e+00) (25, -9.71781969070434570312e-01) (26, -3.58204722404479980469e+00) (27, -1.03728044033050537109e+00) (28, 1.54218807220458984375e+01) (29, -3.88390183448791503906e+00) (30, 7.79158639907836914062e+00) (31, -3.57314753532409667969e+00) (32, -3.69070363044738769531e+00) (33, 1.52773094177246093750e+01) (34, 1.53792858123779296875e+01) (35, -3.69489645957946777344e+00) (36, 1.53222980499267578125e+01) (37, 7.91535949707031250000e+00) (38, 8.69783908128738403320e-02) (39, -3.58034157752990722656e+00) (40, -3.62481665611267089844e+00) (41, 1.54495010375976562500e+01) (42, 1.54144992828369140625e+01) (43, 7.28435516357421875000e+00) (44, 1.06930100917816162109e+00) (45, 1.53554019927978515625e+01) (46, -9.45645570755004882812e-01) (47, 7.83368206024169921875e+00) (48, 1.53547916412353515625e+01) (49, 1.54587154388427734375e+01) (50, 1.54209480285644531250e+01) (51, 1.53297939300537109375e+01) (52, -3.91477179527282714844e+00) (53, 1.54593429565429687500e+01) (54, -3.60117173194885253906e+00) (55, 7.83638095855712890625e+00) (56, -3.88163590431213378906e+00) (57, 7.89362812042236328125e+00) (58, -3.25592923164367675781e+00) (59, 1.53713874816894531250e+01) (60, -1.05684459209442138672e+00) (61, -4.02802276611328125000e+00) (62, 1.53557834625244140625e+01) (63, 7.90770912170410156250e+00) (64, -3.75112175941467285156e+00) (65, 7.94881439208984375000e+00) (66, -3.74894785881042480469e+00) (67, 1.53287181854248046875e+01) (68, -3.89049029350280761719e+00) (69, -3.97162842750549316406e+00) (70, 1.53059196472167968750e+01) (71, 2.97613477706909179688e+00) (72, -1.10094606876373291016e+00) (73, -3.85873961448669433594e+00) (74, 7.80483007431030273438e+00) (75, -1.11071121692657470703e+00) (76, -3.97734475135803222656e+00) (77, 1.53073863983154296875e+01) (78, 1.53711719512939453125e+01) (79, 3.03733777999877929688e+00) (80, 1.52920932769775390625e+01) (81, 9.23171520233154296875e-01) (82, -3.56717467308044433594e+00) (83, 1.54084644317626953125e+01) (84, -4.00170230865478515625e+00) (85, 3.57376241683959960938e+00) (86, 1.52830848693847656250e+01) (87, 7.94070816040039062500e+00) (88, 7.84036827087402343750e+00) (89, 7.94413232803344726562e+00) (90, 9.55393850803375244141e-01) (91, 1.54317245483398437500e+01) (92, -1.52885150909423828125e+01) (93, -1.06198425292968750000e+01) (94, -1.06742782592773437500e+01) (95, -1.05860309600830078125e+01) (96, -1.06327877044677734375e+01) (97, -1.53617458343505859375e+01) (98, 1.13468813896179199219e+00) (99, -2.88418436050415039062e+00) (100, -6.55478537082672119141e-01) 
