FANN_FIX_2.1
decimal_point=5
num_layers=3
learning_rate=0.700000
connection_rate=1.000000
network_type=0
learning_momentum=0.000000
training_algorithm=2
train_error_function=1
train_stop_function=1
cascade_output_change_fraction=0.010000
quickprop_decay=-0.000100
quickprop_mu=1.750000
rprop_increase_factor=1.200000
rprop_decrease_factor=0.500000
rprop_delta_min=0.000000
rprop_delta_max=50.000000
rprop_delta_zero=0.100000
cascade_output_stagnation_epochs=12
cascade_candidate_change_fraction=0.010000
cascade_candidate_stagnation_epochs=12
cascade_max_out_epochs=150
cascade_min_out_epochs=50
cascade_max_cand_epochs=150
cascade_min_cand_epochs=50
cascade_num_candidate_groups=2
bit_fail_limit=0
cascade_candidate_limit=32000
cascade_weight_multiplier=13
cascade_activation_functions_count=10
cascade_activation_functions=3 5 7 8 10 11 14 15 16 17 
cascade_activation_steepnesses_count=4
cascade_activation_steepnesses=8 16 24 32 
layer_sizes=854 11 4 
neurons (num_inputs, activation_function, activation_steepness)=(0, 0, 0) (0, 0, 0) (0, 0, 0) (0, 0, 0) (0, 0, 0) (0, 0, 0) (0, 0, 0) (0, 0, 0) (0, 0, 0) (0, 0, 0) (0, 0, 0) (0, 0, 0) (0, 0, 0) (0, 0, 0) (0, 0, 0) (0, 0, 0) (0, 0, 0) (0, 0, 0) (0, 0, 0) (0, 0, 0) (0, 0, 0) (0, 0, 0) (0, 0, 0) (0, 0, 0) (0, 0, 0) (0, 0, 0) (0, 0, 0) (0, 0, 0) (0, 0, 0) (0, 0, 0) (0, 0, 0) (0, 0, 0) (0, 0, 0) (0, 0, 0) (0, 0, 0) (0, 0, 0) (0, 0, 0) (0, 0, 0) (0, 0, 0) (0, 0, 0) (0, 0, 0) (0, 0, 0) (0, 0, 0) (0, 0, 0) (0, 0, 0) (0, 0, 0) (0, 0, 0) (0, 0, 0) (0, 0, 0) (0, 0, 0) (0, 0, 0) (0, 0, 0) (0, 0, 0) (0, 0, 0) (0, 0, 0) (0, 0, 0) (0, 0, 0) (0, 0, 0) (0, 0, 0) (0, 0, 0) (0, 0, 0) (0, 0, 0) (0, 0, 0) (0, 0, 0) (0, 0, 0) (0, 0, 0) (0, 0, 0) (0, 0, 0) (0, 0, 0) (0, 0, 0) (0, 0, 0) (0, 0, 0) (0, 0, 0) (0, 0, 0) (0, 0, 0) (0, 0, 0) (0, 0, 0) (0, 0, 0) (0, 0, 0) (0, 0, 0) (0, 0, 0) (0, 0, 0) (0, 0, 0) (0, 0, 0) (0, 0, 0) (0, 0, 0) (0, 0, 0) (0, 0, 0) (0, 0, 0) (0, 0, 0) (0, 0, 0) (0, 0, 0) (0, 0, 0) (0, 0, 0) (0, 0, 0) (0, 0, 0) (0, 0, 0) (0, 0, 0) (0, 0, 0) (0, 0, 0) (0, 0, 0) (0, 0, 0) (0, 0, 0) (0, 0, 0) (0, 0, 0) (0, 0, 0) (0, 0, 0) (0, 0, 0) (0, 0, 0) (0, 0, 0) (0, 0, 0) (0, 0, 0) (0, 0, 0) (0, 0, 0) (0, 0, 0) (0, 0, 0) (0, 0, 0) (0, 0, 0) (0, 0, 0) (0, 0, 0) (0, 0, 0) (0, 0, 0) (0, 0, 0) (0, 0, 0) (0, 0, 0) (0, 0, 0) (0, 0, 0) (0, 0, 0) (0, 0, 0) (0, 0, 0) (0, 0, 0) (0, 0, 0) (0, 0, 0) (0, 0, 0) (0, 0, 0) (0, 0, 0) (0, 0, 0) (0, 0, 0) (0, 0, 0) (0, 0, 0) (0, 0, 0) (0, 0, 0) (0, 0, 0) (0, 0, 0) (0, 0, 0) (0, 0, 0) (0, 0, 0) (0, 0, 0) (0, 0, 0) (0, 0, 0) (0, 0, 0) (0, 0, 0) (0, 0, 0) (0, 0, 0) (0, 0, 0) (0, 0, 0) (0, 0, 0) (0, 0, 0) (0, 0, 0) (0, 0, 0) (0, 0, 0) (0, 0, 0) (0, 0, 0) (0, 0, 0) (0, 0, 0) (0, 0, 0) (0, 0, 0) (0, 0, 0) (0, 0, 0) (0, 0, 0) (0, 0, 0) (0, 0, 0) (0, 0, 0) (0, 0, 0) (0, 0, 0) (0, 0, 0) (0, 0, 0) (0, 0, 0) (0, 0, 0) (0, 0, 0) (0, 0, 0) (0, 0, 0) (0, 0, 0) (0, 0, 0) (0, 0, 0) (0, 0, 0) (0, 0, 0) (0, 0, 0) (0, 0, 0) (0, 0, 0) (0, 0, 0) (0, 0, 0) (0, 0, 0) (0, 0, 0) (0, 0, 0) (0, 0, 0) (0, 0, 0) (0, 0, 0) (0, 0, 0) (0, 0, 0) (0, 0, 0) (0, 0, 0) (0, 0, 0) (0, 0, 0) (0, 0, 0) (0, 0, 0) (0, 0, 0) (0, 0, 0) (0, 0, 0) (0, 0, 0) (0, 0, 0) (0, 0, 0) (0, 0, 0) (0, 0, 0) (0, 0, 0) (0, 0, 0) (0, 0, 0) (0, 0, 0) (0, 0, 0) (0, 0, 0) (0, 0, 0) (0, 0, 0) (0, 0, 0) (0, 0, 0) (0, 0, 0) (0, 0, 0) (0, 0, 0) (0, 0, 0) (0, 0, 0) (0, 0, 0) (0, 0, 0) (0, 0, 0) (0, 0, 0) (0, 0, 0) (0, 0, 0) (0, 0, 0) (0, 0, 0) (0, 0, 0) (0, 0, 0) (0, 0, 0) (0, 0, 0) (0, 0, 0) (0, 0, 0) (0, 0, 0) (0, 0, 0) (0, 0, 0) (0, 0, 0) (0, 0, 0) (0, 0, 0) (0, 0, 0) (0, 0, 0) (0, 0, 0) (0, 0, 0) (0, 0, 0) (0, 0, 0) (0, 0, 0) (0, 0, 0) (0, 0, 0) (0, 0, 0) (0, 0, 0) (0, 0, 0) (0, 0, 0) (0, 0, 0) (0, 0, 0) (0, 0, 0) (0, 0, 0) (0, 0, 0) (0, 0, 0) (0, 0, 0) (0, 0, 0) (0, 0, 0) (0, 0, 0) (0, 0, 0) (0, 0, 0) (0, 0, 0) (0, 0, 0) (0, 0, 0) (0, 0, 0) (0, 0, 0) (0, 0, 0) (0, 0, 0) (0, 0, 0) (0, 0, 0) (0, 0, 0) (0, 0, 0) (0, 0, 0) (0, 0, 0) (0, 0, 0) (0, 0, 0) (0, 0, 0) (0, 0, 0) (0, 0, 0) (0, 0, 0) (0, 0, 0) (0, 0, 0) (0, 0, 0) (0, 0, 0) (0, 0, 0) (0, 0, 0) (0, 0, 0) (0, 0, 0) (0, 0, 0) (0, 0, 0) (0, 0, 0) (0, 0, 0) (0, 0, 0) (0, 0, 0) (0, 0, 0) (0, 0, 0) (0, 0, 0) (0, 0, 0) (0, 0, 0) (0, 0, 0) (0, 0, 0) (0, 0, 0) (0, 0, 0) (0, 0, 0) (0, 0, 0) (0, 0, 0) (0, 0, 0) (0, 0, 0) (0, 0, 0) (0, 0, 0) (0, 0, 0) (0, 0, 0) (0, 0, 0) (0, 0, 0) (0, 0, 0) (0, 0, 0) (0, 0, 0) (0, 0, 0) (0, 0, 0) (0, 0, 0) (0, 0, 0) (0, 0, 0) (0, 0, 0) (0, 0, 0) (0, 0, 0) (0, 0, 0) (0, 0, 0) (0, 0, 0) (0, 0, 0) (0, 0, 0) (0, 0, 0) (0, 0, 0) (0, 0, 0) (0, 0, 0) (0, 0, 0) (0, 0, 0) (0, 0, 0) (0, 0, 0) (0, 0, 0) (0, 0, 0) (0, 0, 0) (0, 0, 0) (0, 0, 0) (0, 0, 0) (0, 0, 0) (0, 0, 0) (0, 0, 0) (0, 0, 0) (0, 0, 0) (0, 0, 0) (0, 0, 0) (0, 0, 0) (0, 0, 0) (0, 0, 0) (0, 0, 0) (0, 0, 0) (0, 0, 0) (0, 0, 0) (0, 0, 0) (0, 0, 0) (0, 0, 0) (0, 0, 0) (0, 0, 0) (0, 0, 0) (0, 0, 0) (0, 0, 0) (0, 0, 0) (0, 0, 0) (0, 0, 0) (0, 0, 0) (0, 0, 0) (0, 0, 0) (0, 0, 0) (0, 0, 0) (0, 0, 0) (0, 0, 0) (0, 0, 0) (0, 0, 0) (0, 0, 0) (0, 0, 0) (0, 0, 0) (0, 0, 0) (0, 0, 0) (0, 0, 0) (0, 0, 0) (0, 0, 0) (0, 0, 0) (0, 0, 0) (0, 0, 0) (0, 0, 0) (0, 0, 0) (0, 0, 0) (0, 0, 0) (0, 0, 0) (0, 0, 0) (0, 0, 0) (0, 0, 0) (0, 0, 0) (0, 0, 0) (0, 0, 0) (0, 0, 0) (0, 0, 0) (0, 0, 0) (0, 0, 0) (0, 0, 0) (0, 0, 0) (0, 0, 0) (0, 0, 0) (0, 0, 0) (0, 0, 0) (0, 0, 0) (0, 0, 0) (0, 0, 0) (0, 0, 0) (0, 0, 0) (0, 0, 0) (0, 0, 0) (0, 0, 0) (0, 0, 0) (0, 0, 0) (0, 0, 0) (0, 0, 0) (0, 0, 0) (0, 0, 0) (0, 0, 0) (0, 0, 0) (0, 0, 0) (0, 0, 0) (0, 0, 0) (0, 0, 0) (0, 0, 0) (0, 0, 0) (0, 0, 0) (0, 0, 0) (0, 0, 0) (0, 0, 0) (0, 0, 0) (0, 0, 0) (0, 0, 0) (0, 0, 0) (0, 0, 0) (0, 0, 0) (0, 0, 0) (0, 0, 0) (0, 0, 0) (0, 0, 0) (0, 0, 0) (0, 0, 0) (0, 0, 0) (0, 0, 0) (0, 0, 0) (0, 0, 0) (0, 0, 0) (0, 0, 0) (0, 0, 0) (0, 0, 0) (0, 0, 0) (0, 0, 0) (0, 0, 0) (0, 0, 0) (0, 0, 0) (0, 0, 0) (0, 0, 0) (0, 0, 0) (0, 0, 0) (0, 0, 0) (0, 0, 0) (0, 0, 0) (0, 0, 0) (0, 0, 0) (0, 0, 0) (0, 0, 0) (0, 0, 0) (0, 0, 0) (0, 0, 0) (0, 0, 0) (0, 0, 0) (0, 0, 0) (0, 0, 0) (0, 0, 0) (0, 0, 0) (0, 0, 0) (0, 0, 0) (0, 0, 0) (0, 0, 0) (0, 0, 0) (0, 0, 0) (0, 0, 0) (0, 0, 0) (0, 0, 0) (0, 0, 0) (0, 0, 0) (0, 0, 0) (0, 0, 0) (0, 0, 0) (0, 0, 0) (0, 0, 0) (0, 0, 0) (0, 0, 0) (0, 0, 0) (0, 0, 0) (0, 0, 0) (0, 0, 0) (0, 0, 0) (0, 0, 0) (0, 0, 0) (0, 0, 0) (0, 0, 0) (0, 0, 0) (0, 0, 0) (0, 0, 0) (0, 0, 0) (0, 0, 0) (0, 0, 0) (0, 0, 0) (0, 0, 0) (0, 0, 0) (0, 0, 0) (0, 0, 0) (0, 0, 0) (0, 0, 0) (0, 0, 0) (0, 0, 0) (0, 0, 0) (0, 0, 0) (0, 0, 0) (0, 0, 0) (0, 0, 0) (0, 0, 0) (0, 0, 0) (0, 0, 0) (0, 0, 0) (0, 0, 0) (0, 0, 0) (0, 0, 0) (0, 0, 0) (0, 0, 0) (0, 0, 0) (0, 0, 0) (0, 0, 0) (0, 0, 0) (0, 0, 0) (0, 0, 0) (0, 0, 0) (0, 0, 0) (0, 0, 0) (0, 0, 0) (0, 0, 0) (0, 0, 0) (0, 0, 0) (0, 0, 0) (0, 0, 0) (0, 0, 0) (0, 0, 0) (0, 0, 0) (0, 0, 0) (0, 0, 0) (0, 0, 0) (0, 0, 0) (0, 0, 0) (0, 0, 0) (0, 0, 0) (0, 0, 0) (0, 0, 0) (0, 0, 0) (0, 0, 0) (0, 0, 0) (0, 0, 0) (0, 0, 0) (0, 0, 0) (0, 0, 0) (0, 0, 0) (0, 0, 0) (0, 0, 0) (0, 0, 0) (0, 0, 0) (0, 0, 0) (0, 0, 0) (0, 0, 0) (0, 0, 0) (0, 0, 0) (0, 0, 0) (0, 0, 0) (0, 0, 0) (0, 0, 0) (0, 0, 0) (0, 0, 0) (0, 0, 0) (0, 0, 0) (0, 0, 0) (0, 0, 0) (0, 0, 0) (0, 0, 0) (0, 0, 0) (0, 0, 0) (0, 0, 0) (0, 0, 0) (0, 0, 0) (0, 0, 0) (0, 0, 0) (0, 0, 0) (0, 0, 0) (0, 0, 0) (0, 0, 0) (0, 0, 0) (0, 0, 0) (0, 0, 0) (0, 0, 0) (0, 0, 0) (0, 0, 0) (0, 0, 0) (0, 0, 0) (0, 0, 0) (0, 0, 0) (0, 0, 0) (0, 0, 0) (0, 0, 0) (0, 0, 0) (0, 0, 0) (0, 0, 0) (0, 0, 0) (0, 0, 0) (0, 0, 0) (0, 0, 0) (0, 0, 0) (0, 0, 0) (0, 0, 0) (0, 0, 0) (0, 0, 0) (0, 0, 0) (0, 0, 0) (0, 0, 0) (0, 0, 0) (0, 0, 0) (0, 0, 0) (0, 0, 0) (0, 0, 0) (0, 0, 0) (0, 0, 0) (0, 0, 0) (0, 0, 0) (0, 0, 0) (0, 0, 0) (0, 0, 0) (0, 0, 0) (0, 0, 0) (0, 0, 0) (0, 0, 0) (0, 0, 0) (0, 0, 0) (0, 0, 0) (0, 0, 0) (0, 0, 0) (0, 0, 0) (0, 0, 0) (0, 0, 0) (0, 0, 0) (0, 0, 0) (0, 0, 0) (0, 0, 0) (0, 0, 0) (0, 0, 0) (0, 0, 0) (0, 0, 0) (0, 0, 0) (0, 0, 0) (0, 0, 0) (0, 0, 0) (0, 0, 0) (0, 0, 0) (0, 0, 0) (0, 0, 0) (0, 0, 0) (0, 0, 0) (0, 0, 0) (0, 0, 0) (0, 0, 0) (0, 0, 0) (0, 0, 0) (0, 0, 0) (0, 0, 0) (0, 0, 0) (0, 0, 0) (0, 0, 0) (0, 0, 0) (0, 0, 0) (0, 0, 0) (0, 0, 0) (0, 0, 0) (0, 0, 0) (0, 0, 0) (0, 0, 0) (0, 0, 0) (0, 0, 0) (0, 0, 0) (0, 0, 0) (0, 0, 0) (0, 0, 0) (0, 0, 0) (0, 0, 0) (0, 0, 0) (0, 0, 0) (0, 0, 0) (0, 0, 0) (0, 0, 0) (0, 0, 0) (0, 0, 0) (0, 0, 0) (0, 0, 0) (0, 0, 0) (0, 0, 0) (0, 0, 0) (0, 0, 0) (0, 0, 0) (0, 0, 0) (0, 0, 0) (0, 0, 0) (0, 0, 0) (0, 0, 0) (0, 0, 0) (0, 0, 0) (0, 0, 0) (0, 0, 0) (0, 0, 0) (0, 0, 0) (0, 0, 0) (0, 0, 0) (0, 0, 0) (0, 0, 0) (0, 0, 0) (0, 0, 0) (0, 0, 0) (0, 0, 0) (0, 0, 0) (0, 0, 0) (0, 0, 0) (0, 0, 0) (0, 0, 0) (0, 0, 0) (0, 0, 0) (0, 0, 0) (0, 0, 0) (0, 0, 0) (0, 0, 0) (0, 0, 0) (0, 0, 0) (0, 0, 0) (0, 0, 0) (0, 0, 0) (0, 0, 0) (0, 0, 0) (0, 0, 0) (0, 0, 0) (0, 0, 0) (0, 0, 0) (0, 0, 0) (0, 0, 0) (0, 0, 0) (0, 0, 0) (0, 0, 0) (0, 0, 0) (0, 0, 0) (0, 0, 0) (0, 0, 0) (0, 0, 0) (0, 0, 0) (0, 0, 0) (0, 0, 0) (0, 0, 0) (0, 0, 0) (0, 0, 0) (0, 0, 0) (0, 0, 0) (0, 0, 0) (0, 0, 0) (0, 0, 0) (0, 0, 0) (0, 0, 0) (0, 0, 0) (0, 0, 0) (0, 0, 0) (0, 0, 0) (0, 0, 0) (0, 0, 0) (0, 0, 0) (0, 0, 0) (0, 0, 0) (0, 0, 0) (0, 0, 0) (0, 0, 0) (0, 0, 0) (0, 0, 0) (0, 0, 0) (0, 0, 0) (0, 0, 0) (0, 0, 0) (0, 0, 0) (0, 0, 0) (0, 0, 0) (0, 0, 0) (0, 0, 0) (0, 0, 0) (0, 0, 0) (0, 0, 0) (0, 0, 0) (0, 0, 0) (0, 0, 0) (0, 0, 0) (0, 0, 0) (0, 0, 0) (0, 0, 0) (0, 0, 0) (0, 0, 0) (0, 0, 0) (0, 0, 0) (0, 0, 0) (0, 0, 0) (0, 0, 0) (0, 0, 0) (0, 0, 0) (0, 0, 0) (0, 0, 0) (0, 0, 0) (0, 0, 0) (0, 0, 0) (0, 0, 0) (0, 0, 0) (0, 0, 0) (0, 0, 0) (0, 0, 0) (0, 0, 0) (0, 0, 0) (0, 0, 0) (0, 0, 0) (0, 0, 0) (0, 0, 0) (0, 0, 0) (0, 0, 0) (0, 0, 0) (0, 0, 0) (0, 0, 0) (854, 5, 32) (854, 5, 32) (854, 5, 32) (854, 5, 32) (854, 5, 32) (854, 5, 32) (854, 5, 32) (854, 5, 32) (854, 5, 32) (854, 5, 32) (0, 5, 32) (11, 5, 32) (11, 5, 32) (11, 5, 32) (0, 5, 32) 
connections (connected_to_neuron, weight)=(0, -17) (1, 3) (2, -24) (3, 10282) (4, 9) (5, -6) (6, 5) (7, 14) (8, -17) (9, -29) (10, -21) (11, -7) (12, 0) (13, -1) (14, 43342) (15, -22) (16, 8) (17, 3) (18, 13007) (19, 0) (20, -29) (21, 19) (22, 30) (23, -28) (24, -32) (25, -21) (26, -1) (27, 7) (28, -460) (29, 47193) (30, -31) (31, 362) (32, 373) (33, -20) (34, -9) (35, -18) (36, 214) (37, 23) (38, 49) (39, 55) (40, -48) (41, -2056) (42, -8) (43, -116) (44, 10) (45, -7) (46, -36) (47, 1217) (48, -15) (49, 4975) (50, 71) (51, 26) (52, 48000) (53, 48000) (54, -2) (55, -119) (56, 13013) (57, -20) (58, -29) (59, -13) (60, 13) (61, -30) (62, -10) (63, -26) (64, 14) (65, 13007) (66, 13001) (67, 12995) (68, -49) (69, -5) (70, -24) (71, -19) (72, -19) (73, 26) (74, 37) (75, -8) (76, 60) (77, -7) (78, -4) (79, -17) (80, 0) (81, -5) (82, 4) (83, -20) (84, -14) (85, -18) (86, -29) (87, -2058) (88, 2) (89, -18) (90, -13) (91, -2) (92, -7) (93, -3) (94, -20) (95, -12) (96, -25) (97, -436) (98, 1) (99, 18) (100, 7) (101, 4) (102, -11) (103, 45) (104, 21) (105, 49) (106, 48) (107, 7) (108, 53) (109, 11) (110, 18) (111, -2067) (112, -14) (113, -19) (114, -12) (115, -11735) (116, -11670) (117, -5) (118, -26) (119, -25) (120, -4) (121, -8) (122, -6) (123, 0) (124, -27) (125, -11) (126, -16) (127, -63) (128, 59) (129, 48) (130, -126) (131, 45) (132, -66) (133, -31094) (134, 23) (135, -31) (136, -31) (137, -1667) (138, 11) (139, 21) (140, 39) (141, -1078) (142, -3) (143, 52) (144, 37) (145, -24) (146, 55) (147, 44) (148, 55) (149, 45) (150, 42) (151, 14) (152, -11583) (153, 12) (154, -39) (155, 73) (156, 1166) (157, 38) (158, -5) (159, 51) (160, 129) (161, -27) (162, 52) (163, 49) (164, 57) (165, -25) (166, 11) (167, 3) (168, 13) (169, 1) (170, -10) (171, 12999) (172, 12994) (173, 13014) (174, -6) (175, 12992) (176, -4) (177, 12988) (178, 13012) (179, 12995) (180, -6) (181, 13014) (182, -11) (183, 12992) (184, 13007) (185, 12993) (186, 12990) (187, -10) (188, -57) (189, -22) (190, 652) (191, 49) (192, -14) (193, 3) (194, -15) (195, 6) (196, 22) (197, 22) (198, 1) (199, -2) (200, 4) (201, -11) (202, -3) (203, 13) (204, 4) (205, -8) (206, 5) (207, -21) (208, 10291) (209, 10297) (210, 10287) (211, 10301) (212, -7) (213, 4) (214, -24) (215, -2) (216, 13) (217, 32) (218, 5) (219, -12) (220, -10) (221, -21) (222, -23) (223, -8) (224, -2) (225, 1) (226, -22) (227, 15) (228, -16) (229, -24) (230, 30) (231, 33) (232, -11) (233, -13) (234, -5) (235, -25) (236, 26) (237, 26) (238, -7) (239, -6) (240, -17) (241, -9) (242, -14) (243, -16) (244, -10) (245, -11) (246, -3) (247, -13) (248, -9) (249, -16) (250, 145) (251, 156) (252, -5) (253, 6) (254, -7) (255, -14) (256, 131) (257, 148) (258, -11) (259, -3) (260, 26) (261, 33) (262, -17) (263, -1) (264, -11) (265, 20) (266, 12) (267, 4) (268, -4) (269, -20) (270, 16) (271, -11) (272, -1) (273, -25) (274, -18) (275, -19) (276, -2) (277, 6) (278, -20) (279, -1) (280, 3) (281, 2) (282, -4) (283, -20) (284, 6) (285, -3) (286, -10) (287, -7) (288, 55) (289, 1) (290, -20) (291, -3) (292, 62) (293, 1) (294, 54) (295, 12) (296, -14) (297, 6) (298, -11) (299, -22) (300, -7) (301, 50) (302, -9) (303, 51) (304, 2) (305, -17) (306, 11) (307, 0) (308, 7) (309, -4) (310, -6) (311, -1) (312, -6) (313, 2) (314, -9) (315, -4) (316, 10) (317, -6) (318, 22) (319, -3) (320, -9) (321, -23) (322, 48) (323, -7) (324, 54) (325, 14) (326, 3) (327, 23) (328, -16) (329, -11) (330, -23) (331, 64) (332, 11) (333, 44) (334, -6) (335, -21) (336, 10) (337, -1) (338, -22) (339, -14) (340, -7) (341, -4) (342, -16) (343, -1) (344, -6) (345, 3) (346, 5) (347, 1) (348, -2) (349, 13002) (350, 13004) (351, 25) (352, 23) (353, 13015) (354, 13013) (355, 12989) (356, 13010) (357, 48000) (358, 48000) (359, 7) (360, -16) (361, -25) (362, 12) (363, -3) (364, 11) (365, -19) (366, 30) (367, 7) (368, 2) (369, 13) (370, -94) (371, 8) (372, -20) (373, 0) (374, 10) (375, -6) (376, -8) (377, 1789) (378, -23) (379, -11) (380, 16) (381, -17) (382, -13) (383, -13) (384, 47) (385, 13014) (386, 13006) (387, 6) (388, -12) (389, -1) (390, 2) (391, 19) (392, 44) (393, -21) (394, -17) (395, 27) (396, 12999) (397, 12995) (398, 13015) (399, 12995) (400, 13005) (401, 34) (402, 13012) (403, 48000) (404, 12987) (405, 47) (406, 13018) (407, 12995) (408, 12991) (409, 12992) (410, 48000) (411, 48000) (412, 13017) (413, 13009) (414, 13007) (415, 13007) (416, 13006) (417, 12996) (418, -22) (419, 14) (420, 7) (421, 22) (422, 12996) (423, 13010) (424, 7) (425, -14) (426, 29) (427, -210) (428, -37) (429, 30) (430, -72) (431, -9) (432, -15) (433, -4) (434, 13) (435, -71) (436, -12) (437, 13) (438, 12997) (439, -32) (440, 12989) (441, 12987) (442, 12999) (443, -30) (444, 13011) (445, 12988) (446, 13010) (447, 12998) (448, 12998) (449, -113) (450, 13009) (451, 42) (452, 13001) (453, 12987) (454, -28) (455, -21) (456, -15) (457, -3) (458, 3) (459, -3) (460, -4) (461, -16) (462, -11) (463, 7) (464, 47) (465, -14) (466, -1) (467, 11) (468, 6) (469, -11) (470, -12) (471, -48) (472, -9) (473, -101) (474, -28) (475, -7) (476, -79) (477, -90) (478, 12997) (479, 13016) (480, 31) (481, -16) (482, -22) (483, 12992) (484, -25) (485, -7) (486, -9) (487, -18) (488, 12997) (489, -8) (490, -25) (491, -13) (492, -6) (493, -11) (494, 17) (495, -6) (496, 3) (497, -37) (498, 12988) (499, 2) (500, 4) (501, -20) (502, 13005) (503, 20) (504, 8) (505, 12) (506, -2) (507, -19) (508, 6) (509, -14) (510, -25) (511, -6) (512, -24) (513, 40) (514, -9) (515, -18) (516, -2) (517, -13) (518, 16) (519, -19) (520, -14) (521, -22) (522, -6) (523, 13) (524, -9) (525, 2) (526, -24) (527, -21) (528, 1) (529, -8) (530, 30) (531, 8) (532, -18) (533, -18) (534, 14) (535, 19) (536, -21) (537, -2) (538, -14) (539, -2) (540, 5) (541, -3) (542, 53) (543, 2) (544, 6) (545, -1) (546, -12) (547, -2) (548, -14) (549, -4) (550, -24) (551, 11) (552, 12) (553, 17) (554, 26) (555, -16) (556, -19) (557, 10) (558, 6) (559, 2) (560, 7) (561, -11) (562, 4) (563, -11) (564, 3) (565, -4) (566, -18) (567, 7) (568, -6) (569, -14) (570, -20) (571, 3) (572, 1) (573, -8) (574, 11) (575, 32) (576, 24) (577, -3) (578, -8) (579, 19) (580, 3) (581, 1) (582, 3) (583, -12) (584, -20) (585, -5) (586, 5) (587, 14727) (588, -91) (589, -65) (590, -28) (591, -65) (592, -45066) (593, -33) (594, -39) (595, -25) (596, 13001) (597, 15) (598, 4) (599, 26) (600, 13011) (601, 12991) (602, -1) (603, -3) (604, 14) (605, -18) (606, -21) (607, 9) (608, -9) (609, -17642) (610, 24) (611, -35) (612, 29) (613, 3) (614, -21) (615, 10) (616, 1) (617, 8) (618, 29) (619, 12988) (620, 12986) (621, 12992) (622, 12986) (623, 13005) (624, 25) (625, 12991) (626, 48000) (627, 13001) (628, 41) (629, 13011) (630, 12992) (631, 12995) (632, 13016) (633, 48000) (634, 48000) (635, -50) (636, -6) (637, 0) (638, -15) (639, 9) (640, 17) (641, -16) (642, -5) (643, -12) (644, -2) (645, 131) (646, 131) (647, 3) (648, 9) (649, -19920) (650, -19906) (651, 4) (652, 142) (653, 150) (654, -3) (655, -2) (656, 30) (657, 12) (658, 9) (659, -9) (660, -10) (661, -7) (662, 24) (663, 2) (664, 18) (665, 8) (666, 0) (667, -9) (668, -33) (669, -1) (670, 11) (671, 42) (672, -12) (673, -5) (674, -7) (675, -12) (676, -2) (677, 434) (678, 426) (679, 28) (680, 17) (681, -3) (682, -3) (683, -4) (684, -22) (685, 1055) (686, 1034) (687, 33) (688, 38) (689, -1) (690, 7) (691, -6) (692, -4) (693, -19) (694, -14) (695, -3) (696, 11) (697, 4) (698, 1) (699, 49) (700, 188) (701, 157) (702, 48) (703, 52) (704, 15) (705, -2) (706, -9) (707, -11) (708, 140) (709, 144) (710, 41) (711, 51) (712, 10) (713, 4) (714, -10) (715, 14) (716, -8) (717, -11) (718, 7) (719, -3) (720, -1) (721, -7) (722, 182) (723, 181) (724, 49) (725, 39) (726, -7) (727, -6) (728, -8) (729, -12) (730, 161) (731, 153) (732, 54) (733, 42) (734, -13) (735, -7) (736, -5) (737, 4) (738, 0) (739, -8) (740, 5) (741, 3) (742, 11) (743, 2) (744, 3866) (745, 6) (746, 631) (747, 7) (748, -8099) (749, -2011) (750, -18) (751, -3) (752, 13004) (753, -13) (754, 3) (755, 13015) (756, -11) (757, 1) (758, 13017) (759, 13008) (760, -12546) (761, 13010) (762, 12994) (763, 13001) (764, 13014) (765, 12994) (766, 13007) (767, 12991) (768, 13012) (769, -24) (770, 13004) (771, 13006) (772, 14338) (773, 12999) (774, 61) (775, -40) (776, 12998) (777, 13005) (778, 69) (779, -9) (780, 10360) (781, -40) (782, 13000) (783, 13000) (784, 13001) (785, 35) (786, -36) (787, 5) (788, 2) (789, 12996) (790, -31) (791, -102) (792, -13) (793, 13002) (794, 13015) (795, 13016) (796, 13010) (797, 13004) (798, -21) (799, -43) (800, 13014) (801, 2731) (802, 12992) (803, -43) (804, 17) (805, -1) (806, -4) (807, 23) (808, -2) (809, 13001) (810, 24) (811, 5) (812, 46) (813, 13004) (814, 12996) (815, -9) (816, -8) (817, 6) (818, 15) (819, 38) (820, 0) (821, -18) (822, -7) (823, -7) (824, -8) (825, -2) (826, 9) (827, 7) (828, -16) (829, -14) (830, 23) (831, -36) (832, 8) (833, 1) (834, 10) (835, 7) (836, 0) (837, 12990) (838, 48000) (839, 13002) (840, -4) (841, -15) (842, 37) (843, 21589) (844, -14) (845, 9) (846, 10) (847, 13) (848, -12) (849, 4) (850, 50) (851, -18) (852, 48) (853, 14) (0, 482) (1, -5) (2, 6082) (3, 10888) (4, 12) (5, -6) (6, 8) (7, 14) (8, 103) (9, -10) (10, 14) (11, 10) (12, -9) (13, 9) (14, 30372) (15, 2089) (16, 16) (17, 1) (18, 931) (19, 478) (20, -68) (21, 503) (22, 5) (23, 480) (24, -81) (25, -8) (26, 2) (27, 31) (28, -10407) (29, 44977) (30, -27) (31, 128) (32, 134) (33, -19) (34, 86) (35, 8) (36, -13) (37, 30) (38, 24) (39, -1) (40, 1952) (41, -41673) (42, 21) (43, 117) (44, 17) (45, 16) (46, -33) (47, 35) (48, -46) (49, -534) (50, -4) (51, -6) (52, 48000) (53, 48000) (54, 97) (55, 136) (56, 912) (57, 3) (58, 2) (59, -26) (60, 19) (61, -34) (62, 18) (63, 100) (64, 21) (65, 914) (66, 931) (67, 906) (68, -121) (69, 37229) (70, 0) (71, -56) (72, -23) (73, 3) (74, 23) (75, 9) (76, -11) (77, -1) (78, 11) (79, 4) (80, 26) (81, 93) (82, 12) (83, -10) (84, 2) (85, -14) (86, -7) (87, -41673) (88, 12) (89, 11) (90, 7) (91, 9) (92, 4) (93, 19) (94, 164) (95, 6) (96, 151) (97, 79) (98, 1) (99, -2) (100, -39) (101, -45) (102, -46) (103, 12) (104, 12) (105, -8) (106, 8) (107, -15) (108, 2) (109, -6) (110, -3) (111, -915) (112, 502) (113, 499) (114, 7) (115, -9634) (116, -5935) (117, 496) (118, 84) (119, 65) (120, 20) (121, -8) (122, 93) (123, 3) (124, 70) (125, -5) (126, 80) (127, -280) (128, 8) (129, 18) (130, -169) (131, 2) (132, -70) (133, -2698) (134, -14) (135, -231) (136, -187) (137, 3561) (138, -534) (139, 18) (140, 2) (141, -332) (142, 264) (143, 5) (144, 19) (145, -155) (146, -6) (147, 3) (148, -1) (149, 33) (150, -29) (151, 14) (152, 33) (153, -19) (154, -3) (155, 20) (156, 3653) (157, 10) (158, 17) (159, 16) (160, 16) (161, 223) (162, 5) (163, 146) (164, -13) (165, -10) (166, 20) (167, 4) (168, 2) (169, 13) (170, -3) (171, 926) (172, 931) (173, 923) (174, -6) (175, 906) (176, 8) (177, 917) (178, 917) (179, 910) (180, -3) (181, 930) (182, 6) (183, 924) (184, 933) (185, 908) (186, 908) (187, 504) (188, 211) (189, 525) (190, 720) (191, -5) (192, 13) (193, -16) (194, 2) (195, 5) (196, 14) (197, 21) (198, -2) (199, 1) (200, -3) (201, 18) (202, 1) (203, -8) (204, 6091) (205, 6092) (206, 6079) (207, 6075) (208, 10911) (209, 10911) (210, 10888) (211, 10888) (212, 4) (213, 15) (214, 103) (215, 4) (216, -11) (217, -6) (218, 260) (219, 100) (220, 185) (221, 107) (222, -6) (223, 88) (224, 13) (225, 24) (226, 500) (227, 15) (228, 488) (229, 487) (230, 12) (231, 20) (232, 3) (233, 19) (234, 501) (235, 470) (236, 10) (237, -4) (238, -10) (239, 7) (240, 13) (241, -1) (242, 23) (243, 0) (244, 0) (245, 21) (246, 6) (247, -5) (248, 501) (249, 473) (250, 1) (251, 15) (252, 9) (253, 18) (254, 493) (255, 471) (256, 11) (257, 8) (258, 22) (259, 3) (260, 3) (261, 14) (262, -1) (263, 15) (264, 12) (265, 0) (266, 14) (267, -5) (268, 480) (269, 495) (270, 3) (271, -16) (272, 76) (273, 91) (274, 480) (275, 481) (276, -4) (277, 9) (278, 90) (279, 86) (280, 135) (281, 105) (282, 2) (283, 7) (284, 21) (285, -4) (286, 89) (287, 91) (288, 14) (289, 485) (290, 500) (291, 500) (292, 35) (293, -15) (294, 22) (295, 5) (296, 81) (297, 6) (298, 489) (299, 490) (300, 473) (301, 13) (302, 4) (303, 10) (304, 18) (305, 73) (306, 15) (307, 7) (308, 133) (309, -7) (310, 19) (311, 19) (312, -1) (313, 0) (314, 5) (315, -4) (316, -3) (317, 100) (318, 16) (319, 501) (320, 481) (321, 487) (322, 32) (323, -8) (324, 24) (325, 6) (326, 99) (327, 27) (328, 497) (329, 485) (330, 488) (331, 32) (332, 5) (333, 12) (334, -6) (335, 93) (336, 7) (337, 17) (338, 107) (339, -5) (340, 20) (341, 21) (342, -4) (343, -4) (344, -2) (345, 10) (346, -9) (347, 83) (348, 6) (349, 925) (350, 915) (351, -73) (352, -87) (353, 912) (354, 935) (355, 931) (356, 929) (357, 48000) (358, 48000) (359, 17) (360, 480) (361, 90) (362, 1) (363, 4) (364, 21) (365, 7) (366, 23) (367, 27) (368, -2) (369, 18) (370, -14) (371, 17) (372, 8) (373, 31) (374, -10) (375, 11) (376, 6) (377, -31) (378, -12) (379, -16) (380, -12) (381, -56) (382, 14) (383, -4) (384, 18) (385, 925) (386, 908) (387, 19) (388, -31) (389, 15) (390, -8) (391, 7) (392, 11) (393, 950) (394, 11) (395, -8) (396, 919) (397, 923) (398, 904) (399, 933) (400, 917) (401, -2) (402, 910) (403, 48000) (404, 920) (405, 9) (406, 904) (407, 911) (408, 935) (409, 911) (410, 48000) (411, 48000) (412, 930) (413, 933) (414, 915) (415, 924) (416, 922) (417, 920) (418, 463) (419, 1) (420, 557) (421, 16) (422, 931) (423, 930) (424, 541) (425, 492) (426, 26) (427, 1) (428, -41) (429, 27) (430, -13) (431, 16) (432, -13) (433, 14) (434, 20) (435, -4) (436, 8) (437, 21) (438, 931) (439, -7) (440, 908) (441, 907) (442, 921) (443, 0) (444, 904) (445, 933) (446, 922) (447, 922) (448, 917) (449, 36) (450, 924) (451, 35) (452, 916) (453, 919) (454, 415) (455, -5) (456, -14) (457, -9) (458, 3) (459, -11) (460, 182) (461, 176) (462, -11) (463, 10) (464, -3) (465, -6) (466, 460) (467, 7) (468, 500) (469, -6) (470, -12) (471, -28) (472, -1) (473, -7) (474, -16) (475, -22) (476, -9) (477, -11) (478, 927) (479, 904) (480, 139) (481, 39) (482, 804) (483, 929) (484, 13) (485, 14) (486, 8) (487, -15) (488, 908) (489, -7) (490, -7) (491, 2) (492, -7) (493, 60) (494, 9) (495, -1) (496, 7) (497, -19) (498, 908) (499, 6) (500, -6) (501, 463) (502, 928) (503, 6) (504, 31) (505, 14) (506, 6093) (507, 6091) (508, 4) (509, 5) (510, 79) (511, -5) (512, 95) (513, 5) (514, 173) (515, 175) (516, 62) (517, -28) (518, 10) (519, 6079) (520, 479) (521, 481) (522, 5) (523, -9) (524, 97) (525, 99) (526, 177) (527, 169) (528, 483) (529, 508) (530, -31) (531, -23) (532, 77) (533, 103) (534, 23) (535, -3) (536, 18) (537, 13) (538, 17) (539, -3) (540, 14) (541, -8) (542, 17) (543, 500) (544, 501) (545, -7) (546, -10) (547, 96) (548, 84) (549, 180) (550, 183) (551, 493) (552, 510) (553, -15) (554, -14) (555, 95) (556, 90) (557, 10) (558, 1) (559, 17) (560, 8) (561, 10) (562, 0) (563, 3) (564, -1) (565, 481) (566, 502) (567, -12) (568, 3) (569, 86) (570, 81) (571, 172) (572, 176) (573, 482) (574, 489) (575, -24) (576, -23) (577, 90) (578, 78) (579, 20) (580, 7) (581, 0) (582, 4) (583, 7) (584, 23) (585, -15) (586, -12) (587, 41) (588, 808) (589, 13085) (590, 65) (591, 13085) (592, 656) (593, -14) (594, -20) (595, -8) (596, 918) (597, 11) (598, 488) (599, 4) (600, 929) (601, 932) (602, 554) (603, 487) (604, 41) (605, 45) (606, 272) (607, 123) (608, 4) (609, 23731) (610, 0) (611, -18) (612, 2) (613, 3) (614, 407) (615, 1) (616, 94) (617, 4) (618, 14) (619, 912) (620, 905) (621, 932) (622, 912) (623, 935) (624, -2) (625, 932) (626, 48000) (627, 926) (628, -2) (629, 934) (630, 930) (631, 905) (632, 930) (633, 48000) (634, 48000) (635, -161) (636, 5) (637, 14) (638, 4) (639, 0) (640, 40) (641, 3) (642, 15) (643, 481) (644, 485) (645, 14) (646, -3) (647, 20) (648, 7) (649, -40253) (650, -40253) (651, 495) (652, 16) (653, -1) (654, 8) (655, -3) (656, 11) (657, 29) (658, 22) (659, 12) (660, 20) (661, 17) (662, 25) (663, 26) (664, -4) (665, -8) (666, 25) (667, 22) (668, 79) (669, 5) (670, 3) (671, 2) (672, 152) (673, 162) (674, 72) (675, -1) (676, -2) (677, 525) (678, 513) (679, 22) (680, 18) (681, 4) (682, 1) (683, 61) (684, 69) (685, 535) (686, 532) (687, 0) (688, 18) (689, 18) (690, 20) (691, 2) (692, -6) (693, 10) (694, 6) (695, 16) (696, 10) (697, 2) (698, 0) (699, -8) (700, 490) (701, 505) (702, 15) (703, 19) (704, 5) (705, 22) (706, 70) (707, 61) (708, 524) (709, 517) (710, 21) (711, 13) (712, 15) (713, 21) (714, 25) (715, 16) (716, 27) (717, 23) (718, 27) (719, 19) (720, -1) (721, 4) (722, 490) (723, 509) (724, 32) (725, 14) (726, 8) (727, 7) (728, 68) (729, 66) (730, 518) (731, 511) (732, 20) (733, 26) (734, 8) (735, 14) (736, 9) (737, 11) (738, 12) (739, -1) (740, 26) (741, -1) (742, -5) (743, 7) (744, 45264) (745, 408) (746, 45309) (747, 47) (748, 45309) (749, 281) (750, 492) (751, 492) (752, 905) (753, 19) (754, 6) (755, 934) (756, -1) (757, 18) (758, 912) (759, 906) (760, -29998) (761, 923) (762, 910) (763, 909) (764, 914) (765, 929) (766, 934) (767, 931) (768, 916) (769, 49) (770, 933) (771, 912) (772, -62) (773, 912) (774, 40154) (775, 34820) (776, 923) (777, 918) (778, -925) (779, 64) (780, -32380) (781, -29) (782, 917) (783, 932) (784, 932) (785, 20) (786, -10) (787, -15) (788, 3) (789, 907) (790, -49) (791, -13) (792, 16) (793, 915) (794, 917) (795, 906) (796, 908) (797, 915) (798, 16) (799, 5) (800, 928) (801, -17190) (802, 929) (803, -7) (804, 0) (805, 9) (806, 14) (807, 32) (808, -22) (809, 906) (810, 18) (811, 538) (812, 6) (813, 933) (814, 904) (815, 246) (816, 494) (817, 20) (818, -5) (819, 11) (820, 15) (821, -4) (822, 15) (823, 24) (824, 237) (825, -5) (826, 53) (827, 30) (828, 17) (829, 15) (830, 14) (831, -30) (832, 0) (833, -4) (834, -8) (835, 18) (836, 9) (837, 905) (838, 48000) (839, 906) (840, 58) (841, 103) (842, -3) (843, 47998) (844, 16) (845, -1) (846, -1) (847, -12) (848, -13) (849, 1) (850, 19) (851, -11) (852, 6) (853, -8) (0, 112) (1, -18) (2, 975) (3, 25303) (4, 16) (5, 24) (6, -18) (7, 5) (8, -16) (9, 9) (10, 6) (11, -11) (12, 4) (13, 19) (14, 35064) (15, 74) (16, 18) (17, 13) (18, -25753) (19, 120) (20, -42) (21, 55) (22, -9) (23, 90) (24, -43) (25, 2) (26, 11) (27, 16) (28, -95) (29, 17289) (30, -25) (31, 4) (32, 3) (33, -7) (34, -16) (35, -7) (36, -9) (37, 30) (38, 27) (39, 27) (40, -150) (41, -39) (42, 0) (43, 298) (44, -1) (45, 17) (46, -14) (47, 49) (48, -15) (49, 42) (50, 50) (51, 12) (52, 48000) (53, 48000) (54, -5) (55, 301) (56, -25757) (57, -3) (58, -14) (59, -9) (60, 17) (61, -12) (62, 11) (63, -2) (64, -1) (65, -25768) (66, -25762) (67, -25747) (68, -102) (69, -17) (70, -11) (71, -59) (72, -21) (73, 20) (74, 36) (75, 11) (76, 2) (77, 4) (78, 3) (79, 8) (80, -12) (81, -11) (82, -4) (83, -15) (84, -9) (85, -11) (86, -20) (87, -28) (88, -13) (89, -2) (90, -6) (91, 23) (92, 21) (93, 26) (94, 36) (95, -2) (96, 29) (97, 23) (98, 21) (99, 17) (100, -6) (101, -12) (102, 6) (103, 7) (104, 23) (105, 7) (106, 19) (107, 2) (108, 14) (109, 7) (110, 27) (111, 1) (112, 99) (113, 103) (114, -22) (115, -26) (116, -18) (117, 99) (118, 52) (119, 40) (120, -1) (121, -20) (122, -12) (123, 20) (124, -11) (125, 13) (126, 19) (127, -41) (128, 13) (129, 28) (130, -4315) (131, 31) (132, -47) (133, -83) (134, -4) (135, -14) (136, -140) (137, -27) (138, 11) (139, 20) (140, 22) (141, -19) (142, 10) (143, 41) (144, 12) (145, -27) (146, 28) (147, 31) (148, -4) (149, 558) (150, 870) (151, 4) (152, 33) (153, 3) (154, -19) (155, 359) (156, -8) (157, 1563) (158, 6) (159, 23) (160, -23) (161, -13) (162, -2367) (163, 19) (164, -9) (165, -23) (166, 1) (167, 13) (168, -18) (169, 4) (170, -11) (171, -25752) (172, -25756) (173, -25767) (174, 6) (175, -25743) (176, 20) (177, -25757) (178, -25754) (179, -25740) (180, -2) (181, -25750) (182, 16) (183, -25764) (184, -25769) (185, -25759) (186, -25759) (187, 83) (188, -139) (189, 116) (190, -51) (191, 28) (192, 5) (193, -5) (194, -2) (195, 9) (196, 16) (197, 23) (198, 3) (199, -4) (200, 2) (201, -8) (202, -11) (203, -18) (204, 970) (205, 979) (206, 984) (207, 965) (208, 25288) (209, 25296) (210, 25291) (211, 25293) (212, 5) (213, 20) (214, -13) (215, 25) (216, -1) (217, 25) (218, 1486) (219, 55) (220, 92) (221, 1) (222, 6) (223, -7) (224, 9) (225, 0) (226, 83) (227, -15) (228, 114) (229, 94) (230, 5) (231, 19) (232, 12) (233, 3) (234, 104) (235, 117) (236, 34) (237, 15) (238, -1) (239, -6) (240, 7) (241, -5) (242, -1) (243, 11) (244, -2) (245, 10) (246, 9) (247, 4) (248, 95) (249, 103) (250, -24) (251, -16) (252, 4) (253, 4) (254, 104) (255, 111) (256, -31) (257, -6) (258, -22) (259, 4) (260, -11) (261, -7) (262, -2) (263, 5) (264, 8) (265, 24) (266, -6) (267, -9) (268, 99) (269, 111) (270, -28) (271, -42) (272, -19) (273, 1) (274, 107) (275, 94) (276, -36) (277, -40) (278, -3) (279, -7) (280, 112) (281, 119) (282, 5) (283, -10) (284, 17) (285, 9) (286, -16) (287, 1) (288, 10) (289, 94) (290, 106) (291, 94) (292, 23) (293, -12) (294, 39) (295, 21) (296, 10) (297, 10) (298, 98) (299, 97) (300, 92) (301, 37) (302, -32) (303, 19) (304, 9) (305, 10) (306, 11) (307, 8) (308, 96) (309, -15) (310, -11) (311, -4) (312, 11) (313, -5) (314, -2) (315, 8) (316, 8) (317, -14) (318, 1) (319, 109) (320, 101) (321, 110) (322, 41) (323, -18) (324, 34) (325, 19) (326, 0) (327, 17) (328, 96) (329, 119) (330, 117) (331, 26) (332, -18) (333, 22) (334, 15) (335, -11) (336, 5) (337, -11) (338, 94) (339, -4) (340, -11) (341, -18) (342, 16) (343, 24) (344, 4) (345, -6) (346, 7) (347, 4) (348, 3) (349, -25749) (350, -25755) (351, 12) (352, 2) (353, -25757) (354, -25754) (355, -25767) (356, -25763) (357, 48000) (358, 48000) (359, 140) (360, 92) (361, 21) (362, 24) (363, 28) (364, -6) (365, 15) (366, 348) (367, -10) (368, 9) (369, -1) (370, 0) (371, 46) (372, 7) (373, -5) (374, 19) (375, 16) (376, 16) (377, -15) (378, -3) (379, 24) (380, 25) (381, -15) (382, 13) (383, -2) (384, 11) (385, -25768) (386, -25757) (387, 2) (388, -29) (389, 0) (390, 22) (391, 4) (392, 14) (393, 20) (394, 0) (395, 30) (396, -25757) (397, -25758) (398, -25765) (399, -25765) (400, -25752) (401, 29) (402, -25768) (403, 48000) (404, -25755) (405, 33) (406, -25750) (407, -25766) (408, -25760) (409, -25737) (410, 48000) (411, 48000) (412, -25743) (413, -25750) (414, -25751) (415, -25768) (416, -25749) (417, -25739) (418, 49) (419, 13) (420, 89) (421, -3) (422, -25768) (423, -25743) (424, 89) (425, 94) (426, 14) (427, -86) (428, -53) (429, 17) (430, -6) (431, -5) (432, 12) (433, 12) (434, 25) (435, -8) (436, 8) (437, 11) (438, -25767) (439, -15) (440, -25753) (441, -25767) (442, -25739) (443, -27) (444, -25748) (445, -25754) (446, -25759) (447, -25760) (448, -25757) (449, -210) (450, -25767) (451, 619) (452, -25769) (453, -25766) (454, 76) (455, -37) (456, -31) (457, -15) (458, -3) (459, -17) (460, 12) (461, 21) (462, 20) (463, -1) (464, 16) (465, 17) (466, 38) (467, 21) (468, 94) (469, -1) (470, 11) (471, -45) (472, -13) (473, -18) (474, 1) (475, 14) (476, -8) (477, -21) (478, -25764) (479, -25761) (480, 73) (481, -31) (482, 13) (483, -25767) (484, -8) (485, 7) (486, -15) (487, -4) (488, -25747) (489, 10) (490, -28) (491, 3) (492, 7) (493, 21) (494, 15) (495, 18) (496, 20) (497, 4) (498, -25752) (499, 27) (500, 14) (501, 37) (502, -25747) (503, 22) (504, -6) (505, 18) (506, 979) (507, 968) (508, 24) (509, 22) (510, 5) (511, -12) (512, 12) (513, 11) (514, 82) (515, 88) (516, -11) (517, -8) (518, 21) (519, 982) (520, -308) (521, -324) (522, -42) (523, -13) (524, -14) (525, -6) (526, 91) (527, 101) (528, -1367) (529, -1390) (530, -44) (531, -59) (532, -13) (533, 1) (534, 6) (535, 18) (536, 3) (537, 25) (538, 25) (539, 3) (540, 22) (541, 14) (542, 15) (543, -302) (544, -303) (545, -30) (546, -41) (547, 7) (548, -2) (549, 99) (550, 90) (551, -1390) (552, -1395) (553, -54) (554, -71) (555, -13) (556, -17) (557, 22) (558, 3) (559, -7) (560, -7) (561, -1) (562, 10) (563, 4) (564, 23) (565, -301) (566, -298) (567, -38) (568, -16) (569, 9) (570, -5) (571, 91) (572, 86) (573, -1370) (574, -1382) (575, -66) (576, -67) (577, -3) (578, -15) (579, 22) (580, 10) (581, 18) (582, -7) (583, 8) (584, 7) (585, 0) (586, 19) (587, 607) (588, 2960) (589, -4861) (590, 3) (591, -4861) (592, -185) (593, -40) (594, -35) (595, 0) (596, -25739) (597, -6) (598, 94) (599, 13) (600, -25766) (601, -25750) (602, 102) (603, 108) (604, 8) (605, 5) (606, 142) (607, 99) (608, 8) (609, 37270) (610, 10) (611, -10) (612, 15) (613, 10) (614, 70) (615, 4) (616, -4) (617, -4) (618, 29) (619, -25751) (620, -25738) (621, -25758) (622, -25752) (623, -25766) (624, 17) (625, -25744) (626, 48000) (627, -25758) (628, 34) (629, -25765) (630, -25765) (631, -25768) (632, -25746) (633, 48000) (634, 48000) (635, -144) (636, 8) (637, 11) (638, 3) (639, 23) (640, 12) (641, 1) (642, 16) (643, 163) (644, 172) (645, -31) (646, -12) (647, -17) (648, -23) (649, 11206) (650, 11219) (651, 152) (652, -8) (653, -21) (654, -21) (655, -19) (656, 2) (657, 2) (658, 9) (659, -6) (660, 0) (661, 12) (662, 0) (663, 28) (664, -14) (665, 3) (666, -4) (667, 13) (668, -9) (669, 19) (670, 8) (671, 27) (672, 58) (673, 30) (674, -13) (675, 13) (676, -15) (677, -6949) (678, -6944) (679, 6) (680, 4) (681, 13) (682, -2) (683, 1) (684, 5) (685, -21442) (686, -21419) (687, -3) (688, 8) (689, 11) (690, -2) (691, 14) (692, -3) (693, -3) (694, 10) (695, -1) (696, 18) (697, 12) (698, 20) (699, 36) (700, -115) (701, -119) (702, 34) (703, 20) (704, 4) (705, 20) (706, 2) (707, -15) (708, -3287) (709, -3280) (710, 25) (711, 27) (712, 5) (713, 15) (714, 4) (715, 2) (716, 18) (717, 0) (718, 0) (719, -2) (720, 17) (721, 5) (722, -99) (723, -100) (724, 26) (725, 22) (726, 27) (727, 4) (728, 4) (729, 0) (730, -3293) (731, -3295) (732, 42) (733, 42) (734, 11) (735, 2) (736, 18) (737, 4) (738, 8) (739, -3) (740, 23) (741, 23) (742, 16) (743, 3) (744, 61) (745, 28) (746, 148) (747, -13) (748, -1593) (749, 108) (750, -1049) (751, -1038) (752, -25767) (753, 7) (754, 17) (755, -25752) (756, 17) (757, 17) (758, -25744) (759, -25750) (760, -40) (761, -25768) (762, -25744) (763, -25755) (764, -25737) (765, -25761) (766, -25749) (767, -25746) (768, -25751) (769, -20) (770, -25740) (771, -25753) (772, -26) (773, -25751) (774, -36030) (775, -6) (776, -25753) (777, -25761) (778, -6076) (779, -2) (780, 2885) (781, -22) (782, -25749) (783, -25768) (784, -25738) (785, -7) (786, -76) (787, 16) (788, -5) (789, -25758) (790, -54) (791, -24) (792, 6) (793, -25768) (794, -25741) (795, -25758) (796, -25760) (797, -25753) (798, -14) (799, -83) (800, -25749) (801, -4164) (802, -25759) (803, -111) (804, -241) (805, -3) (806, 7) (807, 31) (808, -26) (809, -25757) (810, 11) (811, 98) (812, 20) (813, -25758) (814, -25759) (815, 58) (816, 109) (817, 22) (818, 14) (819, 14) (820, -7) (821, 22) (822, -16) (823, 10) (824, 19) (825, 27) (826, 24) (827, 0) (828, 4) (829, 25) (830, 29) (831, -46) (832, 24) (833, 5) (834, 24) (835, -9) (836, 7) (837, -25762) (838, 48000) (839, -25748) (840, -2) (841, -18) (842, 33) (843, 31295) (844, 4) (845, 1) (846, 4) (847, -19) (848, -6) (849, -1) (850, 15) (851, -10) (852, 33) (853, 10) (0, 37) (1, 43) (2, 59) (3, 47492) (4, 28) (5, 4) (6, 414) (7, 426) (8, 24) (9, 19) (10, 19) (11, 32) (12, 19) (13, 13) (14, 32211) (15, 102) (16, 2) (17, -2) (18, 201) (19, 16) (20, 24) (21, 22) (22, 12) (23, 23) (24, 13) (25, 5) (26, 0) (27, -4) (28, 14) (29, -6820) (30, 29) (31, -5370) (32, -5351) (33, 141) (34, 260) (35, 54) (36, 76) (37, 11) (38, 18) (39, 6) (40, 1681) (41, 33) (42, 11) (43, -926) (44, 7) (45, 24) (46, 15) (47, 37402) (48, 32) (49, 23539) (50, 19059) (51, 14) (52, 48000) (53, 48000) (54, 17) (55, -933) (56, 202) (57, 51) (58, 34) (59, 22) (60, 19) (61, 32) (62, 23) (63, 29) (64, 11) (65, 220) (66, 210) (67, 207) (68, -116) (69, -15121) (70, 15) (71, 23) (72, 54) (73, 28) (74, 27) (75, -2) (76, 23) (77, 12) (78, 10) (79, 38) (80, 33) (81, 43) (82, 28) (83, 15) (84, 25) (85, 16) (86, 18) (87, 33) (88, -2) (89, 15) (90, 7) (91, 29) (92, 14) (93, 8) (94, 27) (95, 32) (96, 56) (97, 164) (98, 9) (99, 27) (100, 15) (101, 15) (102, 7) (103, 17) (104, 10) (105, 10) (106, 15) (107, 0) (108, 19) (109, 25) (110, 16) (111, -29007) (112, 48) (113, 39) (114, -171) (115, -25438) (116, -28432) (117, 24) (118, 223) (119, 215) (120, 50) (121, 54) (122, 42) (123, 8) (124, 43) (125, 7) (126, 14) (127, 24) (128, 30) (129, 17) (130, 18) (131, 17) (132, 4) (133, 3864) (134, 31) (135, 29) (136, -2024) (137, 126) (138, -6168) (139, 29) (140, 4) (141, 11) (142, 44) (143, 32) (144, 29) (145, 34) (146, 18) (147, 26) (148, 28) (149, 26) (150, 27) (151, 19) (152, 17) (153, 27) (154, 5) (155, 17) (156, 80) (157, 3) (158, 10) (159, 3) (160, 26) (161, 46) (162, 18) (163, 35) (164, 28) (165, 47) (166, 9) (167, -4) (168, 423) (169, 399) (170, 27) (171, 229) (172, 208) (173, 225) (174, 26) (175, 201) (176, 11) (177, 215) (178, 227) (179, 209) (180, 9) (181, 225) (182, 26) (183, 205) (184, 221) (185, 231) (186, 226) (187, 47) (188, 393) (189, 30) (190, 42) (191, 3) (192, 3) (193, 13) (194, -5) (195, -3) (196, -3) (197, 8) (198, 34) (199, 58) (200, 31) (201, 45) (202, 42) (203, 39) (204, 56) (205, 57) (206, 59) (207, 38) (208, 47492) (209, 47492) (210, 47492) (211, 47492) (212, 87) (213, 9) (214, 34) (215, 2) (216, 8) (217, 19) (218, 33) (219, 37) (220, 41) (221, 42) (222, 21) (223, 11) (224, 34) (225, 24) (226, 26) (227, 38) (228, 23) (229, 30) (230, 9) (231, 18) (232, 8) (233, 5) (234, 29) (235, 49) (236, 26) (237, 1) (238, 2) (239, 2) (240, 32) (241, 25) (242, 50) (243, 31) (244, 56) (245, 43) (246, 3) (247, 6) (248, 16) (249, 15) (250, 28) (251, 30) (252, 425) (253, 417) (254, 16) (255, 22) (256, 11) (257, 9) (258, 422) (259, 414) (260, 27) (261, 9) (262, 63) (263, 90) (264, 39) (265, 45) (266, 427) (267, 404) (268, 33) (269, 14) (270, -35) (271, -35) (272, 28) (273, 43) (274, 27) (275, 27) (276, -30) (277, -27) (278, 31) (279, 28) (280, 26) (281, 23) (282, 27) (283, 27) (284, 25) (285, 39) (286, 33) (287, 24) (288, 25) (289, 28) (290, 42) (291, 27) (292, 14) (293, -13) (294, 9) (295, 24) (296, 26) (297, 5) (298, 15) (299, 15) (300, 23) (301, 7) (302, -34) (303, 23) (304, 6) (305, 34) (306, 3) (307, 23) (308, 16) (309, 34) (310, 65) (311, 40) (312, 41) (313, 45) (314, 32) (315, 36) (316, 1) (317, 42) (318, 20) (319, 43) (320, 26) (321, 33) (322, 8) (323, -15) (324, 16) (325, 19) (326, 35) (327, -2) (328, 44) (329, 38) (330, 16) (331, 4) (332, -43) (333, 10) (334, 29) (335, 22) (336, 1) (337, 6) (338, 9) (339, 20) (340, 89) (341, 22) (342, 39) (343, 31) (344, 53) (345, 40) (346, 15) (347, 14) (348, 11) (349, 209) (350, 231) (351, 9) (352, 11) (353, 210) (354, 223) (355, 214) (356, 231) (357, 48000) (358, 48000) (359, 31) (360, 21) (361, 24) (362, -2) (363, 6) (364, 30) (365, 0) (366, 23) (367, 2) (368, 14) (369, 19) (370, 17) (371, 6) (372, 24) (373, 25) (374, 17) (375, 22) (376, -1) (377, 9) (378, 29) (379, 12) (380, 4) (381, 33) (382, 9) (383, 9) (384, 7) (385, 202) (386, 220) (387, 10) (388, 20) (389, 0) (390, -1) (391, 21) (392, 25) (393, 71) (394, -4) (395, 21) (396, 210) (397, 219) (398, 222) (399, 219) (400, 207) (401, 5) (402, 226) (403, 48000) (404, 225) (405, 9) (406, 232) (407, 228) (408, 210) (409, 229) (410, 48000) (411, 48000) (412, 226) (413, 225) (414, 225) (415, 201) (416, 228) (417, 214) (418, -10) (419, 12) (420, 26) (421, 11) (422, 205) (423, 208) (424, 8) (425, 20) (426, 30) (427, 24) (428, 29) (429, 19) (430, 19) (431, -5) (432, 19) (433, 6) (434, 3) (435, 11) (436, 15) (437, 0) (438, 212) (439, 34) (440, 202) (441, 226) (442, 217) (443, 24) (444, 220) (445, 211) (446, 230) (447, 215) (448, 225) (449, 4) (450, 228) (451, 3) (452, 218) (453, 201) (454, 42) (455, 1) (456, 2) (457, 10) (458, 23) (459, -5) (460, 2) (461, 19) (462, -5) (463, 20) (464, 31) (465, 1) (466, 23) (467, 14) (468, 30) (469, 17) (470, 12) (471, 19) (472, 14) (473, -3) (474, 6) (475, 9) (476, 18) (477, 4) (478, 220) (479, 206) (480, 255) (481, 13) (482, 47) (483, 202) (484, 25) (485, 4) (486, 16) (487, 22) (488, 219) (489, 5) (490, 29) (491, 17) (492, 26) (493, 96) (494, 11) (495, 25) (496, -5) (497, 28) (498, 216) (499, 7) (500, 9) (501, 14) (502, 225) (503, 28) (504, 0) (505, 6) (506, 37) (507, 50) (508, 42) (509, 18) (510, 29) (511, 32) (512, 18) (513, 8) (514, 49) (515, 42) (516, 18) (517, 10) (518, 13) (519, 66) (520, 40) (521, 33) (522, -24) (523, -29) (524, 16) (525, 15) (526, 39) (527, 31) (528, 49) (529, 50) (530, 17) (531, 11) (532, 40) (533, 21) (534, 5) (535, 28) (536, 36) (537, 34) (538, 37) (539, 49) (540, -3) (541, -1) (542, 24) (543, 31) (544, 34) (545, -21) (546, -43) (547, 35) (548, 41) (549, 46) (550, 50) (551, 37) (552, 52) (553, 12) (554, 32) (555, 13) (556, 26) (557, 8) (558, 3) (559, 32) (560, 29) (561, 44) (562, 42) (563, -2) (564, 26) (565, 49) (566, 24) (567, -32) (568, -38) (569, 28) (570, 18) (571, 35) (572, 48) (573, 52) (574, 39) (575, 2) (576, 22) (577, 30) (578, 35) (579, 16) (580, 2) (581, 37) (582, 24) (583, 25) (584, 48) (585, -5) (586, -1) (587, 591) (588, 43) (589, 39953) (590, 32) (591, 39953) (592, 1327) (593, 0) (594, 25) (595, 24) (596, 231) (597, 22) (598, 15) (599, 5) (600, 207) (601, 216) (602, 2) (603, 42) (604, 12) (605, 738) (606, 23) (607, 40) (608, 12) (609, 46235) (610, 19) (611, 18) (612, 1) (613, 19) (614, 37) (615, 23) (616, 556) (617, 24) (618, 4) (619, 203) (620, 207) (621, 221) (622, 221) (623, 206) (624, 26) (625, 209) (626, 48000) (627, 226) (628, 1) (629, 215) (630, 231) (631, 207) (632, 232) (633, 48000) (634, 48000) (635, 9) (636, 7) (637, 27) (638, 18) (639, 26) (640, 17) (641, 3) (642, 14) (643, 62) (644, 72) (645, 12) (646, 19) (647, 422) (648, 406) (649, 31) (650, 36) (651, 55) (652, 12) (653, 16) (654, 419) (655, 404) (656, 23) (657, 23) (658, 60) (659, 54) (660, 39) (661, 61) (662, 1) (663, 9) (664, 28) (665, 20) (666, 19) (667, 19) (668, 17) (669, 5) (670, 18) (671, 24) (672, 34) (673, 25) (674, 26) (675, 12) (676, 35) (677, 57) (678, 34) (679, 25) (680, 19) (681, 2) (682, 9) (683, 42) (684, 60) (685, 67) (686, 43) (687, 12) (688, 25) (689, 5) (690, 4) (691, 0) (692, 3) (693, 17) (694, 22) (695, 32) (696, 25) (697, 1) (698, 8) (699, 17) (700, 66) (701, 52) (702, 5) (703, 28) (704, 5) (705, 18) (706, 56) (707, 67) (708, 65) (709, 68) (710, 20) (711, 8) (712, 26) (713, -1) (714, 8) (715, 10) (716, 8) (717, 28) (718, 38) (719, 37) (720, 24) (721, -2) (722, 82) (723, 56) (724, 8) (725, 8) (726, 20) (727, 20) (728, 55) (729, 43) (730, 51) (731, 73) (732, 0) (733, 12) (734, 25) (735, 8) (736, -1) (737, 5) (738, 13) (739, 31) (740, 13) (741, 39) (742, -1) (743, 26) (744, -17) (745, 34) (746, -23264) (747, 30) (748, -710) (749, -3258) (750, 47) (751, 25) (752, 213) (753, 20) (754, 3) (755, 224) (756, -1) (757, 27) (758, 215) (759, 217) (760, -19808) (761, 222) (762, 213) (763, 203) (764, 205) (765, 208) (766, 213) (767, 208) (768, 219) (769, 14) (770, 201) (771, 222) (772, -17155) (773, 204) (774, 129) (775, 10263) (776, 221) (777, 202) (778, 21110) (779, 29) (780, -128) (781, 7) (782, 229) (783, 225) (784, 227) (785, 2701) (786, 21) (787, 24) (788, 0) (789, 232) (790, 4) (791, 5) (792, 19) (793, 227) (794, 204) (795, 227) (796, 203) (797, 217) (798, 36) (799, 28) (800, 204) (801, -1) (802, 212) (803, 25) (804, 14) (805, 0) (806, -2) (807, 37) (808, -1) (809, 211) (810, 24) (811, 36) (812, 15) (813, 221) (814, 209) (815, -75) (816, 39) (817, 23) (818, 4) (819, 26) (820, 24) (821, 17) (822, 26) (823, 12) (824, 27) (825, 25) (826, 8) (827, 16) (828, 9) (829, 8) (830, 7) (831, 23) (832, 13) (833, 20) (834, 2) (835, 30) (836, 18) (837, 208) (838, 48000) (839, 227) (840, 31) (841, 594) (842, 11) (843, 30938) (844, 4) (845, 16) (846, 10) (847, 35) (848, 11) (849, 16) (850, 29) (851, 12) (852, 9) (853, 1) (0, 43394) (1, 48) (2, -153) (3, 48000) (4, 5) (5, 33) (6, 74) (7, 82) (8, 200) (9, 10) (10, 24) (11, 35) (12, 20) (13, -7) (14, 7) (15, 765) (16, 23) (17, 12) (18, 36366) (19, 32619) (20, 17) (21, 41195) (22, 21) (23, 27961) (24, 8) (25, 1) (26, 8) (27, -9) (28, 27) (29, 41) (30, 943) (31, 23) (32, 38) (33, 4242) (34, 49) (35, 1452) (36, 3905) (37, -4) (38, -2) (39, -5) (40, 15) (41, 13) (42, 23) (43, 21978) (44, 7) (45, 11) (46, 931) (47, 20) (48, 926) (49, 24) (50, 29) (51, 0) (52, 48000) (53, 48000) (54, 8) (55, 21978) (56, 36366) (57, 1471) (58, 1467) (59, 937) (60, 8) (61, 931) (62, 20) (63, 142) (64, 7) (65, 36366) (66, 36366) (67, 36366) (68, 33) (69, 2) (70, 25) (71, 13) (72, 1469) (73, -26) (74, -16) (75, -9) (76, -2) (77, 31) (78, 6) (79, 34) (80, 20) (81, 136) (82, 11) (83, 21) (84, 37) (85, 31) (86, 35) (87, 33) (88, 4) (89, 5) (90, 4) (91, 11) (92, 16) (93, -3) (94, 42278) (95, 3) (96, 208) (97, 300) (98, 14) (99, 17) (100, 8) (101, 14) (102, -9) (103, -13) (104, 15) (105, -7) (106, -10) (107, 4) (108, -14) (109, 17) (110, -1) (111, 48000) (112, 42072) (113, 42072) (114, 11) (115, 48000) (116, 48000) (117, 42072) (118, 795) (119, 772) (120, 22) (121, 1462) (122, 142) (123, -4) (124, 31) (125, -10) (126, 34) (127, 11) (128, -21) (129, 2) (130, 21) (131, -2) (132, 18) (133, 30) (134, -16) (135, 13) (136, 14) (137, 6) (138, -4) (139, -8) (140, -17) (141, 8) (142, 2058) (143, -12) (144, -35) (145, -4) (146, -10) (147, -18) (148, 9) (149, -10) (150, -9) (151, -2) (152, -12) (153, -7) (154, 13) (155, -5) (156, -5) (157, -39) (158, 19) (159, -17) (160, -8) (161, 18673) (162, -23) (163, -26) (164, -14) (165, 1460) (166, 25) (167, 5) (168, 85) (169, 86) (170, 26) (171, 36366) (172, 36366) (173, 36366) (174, 14) (175, 36366) (176, 5) (177, 36366) (178, 36366) (179, 36366) (180, 19) (181, 36366) (182, 19) (183, 36366) (184, 36366) (185, 36366) (186, 36366) (187, 42072) (188, 21) (189, 42072) (190, -35) (191, -19) (192, -10) (193, 4) (194, 3) (195, -16) (196, 7) (197, -12) (198, 1454) (199, 1467) (200, 44) (201, 32) (202, 36) (203, 20) (204, -138) (205, -156) (206, -138) (207, -155) (208, 48000) (209, 48000) (210, 48000) (211, 48000) (212, 32) (213, 17) (214, 35) (215, 12) (216, 4) (217, -24) (218, 19072) (219, -6650) (220, 37779) (221, 215) (222, 25) (223, 146) (224, 45) (225, -6) (226, 26880) (227, 41) (228, 45131) (229, 45131) (230, -12) (231, -25) (232, 8) (233, -1) (234, 45131) (235, 45131) (236, -8) (237, -18) (238, 22) (239, 3) (240, 25) (241, 40) (242, 37) (243, 13) (244, 27) (245, 20) (246, 18) (247, 24) (248, 43394) (249, 43394) (250, -11) (251, -8) (252, 62) (253, 87) (254, 43394) (255, 43394) (256, 8) (257, 12) (258, 69) (259, 61) (260, 34) (261, 31) (262, 12) (263, 21) (264, 9) (265, 23) (266, 90) (267, 83) (268, 43394) (269, 43394) (270, -7) (271, -2) (272, 153) (273, 130) (274, 43394) (275, 43394) (276, 6) (277, -2) (278, 141) (279, 132) (280, 27116) (281, 27116) (282, 22) (283, 27) (284, 23) (285, 27) (286, 213) (287, 195) (288, -9) (289, 43394) (290, 43394) (291, 45131) (292, -26) (293, 9) (294, -28) (295, -1) (296, 133) (297, 19) (298, 43394) (299, 43394) (300, 45131) (301, -28) (302, -2) (303, -7) (304, -4) (305, 152) (306, -9) (307, 61) (308, 27116) (309, 26) (310, 29) (311, 25) (312, 12) (313, 13) (314, 14) (315, 29) (316, 21) (317, 188) (318, -9) (319, 43394) (320, 43394) (321, 45131) (322, -27) (323, 6) (324, -23) (325, -4) (326, 150) (327, -2) (328, 43394) (329, 43394) (330, 45131) (331, 2) (332, 10) (333, -10) (334, 13) (335, 151) (336, -2) (337, 65) (338, 27116) (339, 21) (340, 14) (341, 8) (342, 36) (343, 20) (344, 15) (345, 12) (346, -3) (347, 188) (348, -1) (349, 36366) (350, 36366) (351, 33) (352, 33) (353, 36366) (354, 36366) (355, 36366) (356, 36366) (357, 48000) (358, 48000) (359, -8) (360, 43394) (361, 206) (362, 16) (363, -9) (364, -16) (365, 8) (366, -20) (367, 24) (368, 12) (369, -1) (370, 16) (371, -4) (372, 1) (373, 38) (374, 16) (375, 10) (376, 20) (377, 40) (378, 34) (379, 0) (380, -3) (381, 7) (382, -9) (383, -11) (384, -22) (385, 36366) (386, 36366) (387, -11) (388, 8) (389, -2) (390, 19) (391, -12) (392, 14) (393, 5295) (394, -3) (395, -27) (396, 36366) (397, 36366) (398, 36366) (399, 36366) (400, 36366) (401, -16) (402, 36366) (403, 48000) (404, 36366) (405, -7) (406, 36366) (407, 36366) (408, 36366) (409, 36366) (410, 48000) (411, 48000) (412, 36366) (413, 36366) (414, 36366) (415, 36366) (416, 36366) (417, 36366) (418, 48000) (419, 6) (420, 47071) (421, -9) (422, 36366) (423, 36366) (424, 48000) (425, 43394) (426, -9) (427, 532) (428, 2) (429, 9) (430, 6) (431, 13) (432, -9) (433, -2) (434, 11) (435, 3) (436, 18) (437, -3) (438, 36366) (439, 26) (440, 36366) (441, 36366) (442, 36366) (443, 15) (444, 36366) (445, 36366) (446, 36366) (447, 36366) (448, 36366) (449, 2094) (450, 36366) (451, -7) (452, 36366) (453, 36366) (454, 48000) (455, 14) (456, 8) (457, 4) (458, 25) (459, 14) (460, 48000) (461, 48000) (462, 3) (463, -10) (464, -20) (465, -6) (466, 48000) (467, -3) (468, 43394) (469, 11) (470, 15) (471, 1) (472, 27) (473, 460) (474, 18) (475, -5) (476, 33) (477, 462) (478, 36366) (479, 36366) (480, 24039) (481, 4) (482, 3660) (483, 36366) (484, 20) (485, 21) (486, 22) (487, 101) (488, 36366) (489, 20) (490, 9) (491, 17) (492, -10) (493, -1571) (494, 12) (495, 0) (496, -4) (497, 0) (498, 36366) (499, 11) (500, 20) (501, 48000) (502, 36366) (503, 3) (504, 27) (505, 23) (506, -148) (507, -163) (508, 33) (509, -3) (510, 95) (511, 22) (512, 184) (513, -26) (514, 4049) (515, 4049) (516, 81) (517, -3) (518, -4) (519, -157) (520, 32821) (521, 32821) (522, -3) (523, -6) (524, 209) (525, 187) (526, 1476) (527, 1462) (528, 34346) (529, 34346) (530, 5) (531, -8) (532, 139) (533, 144) (534, 12) (535, 17) (536, 7) (537, 22) (538, 12) (539, 35) (540, 13) (541, -7) (542, -4) (543, 32821) (544, 32821) (545, 6) (546, -3) (547, 209) (548, 203) (549, 1477) (550, 1467) (551, 34346) (552, 34346) (553, -4) (554, 12) (555, 132) (556, 145) (557, -2) (558, -9) (559, 35) (560, 19) (561, 34) (562, 12) (563, 12) (564, 0) (565, 32821) (566, 32821) (567, 4) (568, 6) (569, 213) (570, 193) (571, 1471) (572, 1465) (573, 34346) (574, 34346) (575, -4) (576, 3) (577, 140) (578, 135) (579, -6) (580, 15) (581, 20) (582, 7) (583, 13) (584, 33) (585, 17) (586, -2) (587, 48000) (588, 10057) (589, 48000) (590, 75) (591, 48000) (592, 39674) (593, 7) (594, 9) (595, 17) (596, 36366) (597, -3) (598, 47071) (599, -10) (600, 36366) (601, 36366) (602, 47071) (603, 43394) (604, 8) (605, 732) (606, -3758) (607, 5369) (608, 18) (609, 47520) (610, 4) (611, 21) (612, 1) (613, 6) (614, 48000) (615, -5) (616, 16517) (617, 1) (618, -9) (619, 36366) (620, 36366) (621, 36366) (622, 36366) (623, 36366) (624, -16) (625, 36366) (626, 48000) (627, 36366) (628, -20) (629, 36366) (630, 36366) (631, 36366) (632, 36366) (633, 48000) (634, 48000) (635, 164) (636, 12) (637, 8) (638, 34) (639, 5) (640, -1) (641, 3) (642, 1) (643, 35562) (644, 35535) (645, -7) (646, -16) (647, 82) (648, 88) (649, 48000) (650, 48000) (651, 35553) (652, 1) (653, 10) (654, 92) (655, 66) (656, -21) (657, -22) (658, 36) (659, 13) (660, 12) (661, 33) (662, -29) (663, -50) (664, 16) (665, 30) (666, 6) (667, 13) (668, 182) (669, 3) (670, 0) (671, -12) (672, -32832) (673, -32835) (674, 194) (675, 17) (676, 19) (677, 45049) (678, 45049) (679, 0) (680, -20) (681, 18) (682, 8) (683, 38) (684, 31) (685, 48000) (686, 48000) (687, -2) (688, -14) (689, 18) (690, 16) (691, 5) (692, 15) (693, 25) (694, 23) (695, 34) (696, 9) (697, -8) (698, 9) (699, -25) (700, 41195) (701, 41195) (702, -8) (703, -17) (704, 12) (705, -10) (706, 15) (707, 38) (708, 48000) (709, 48000) (710, -3) (711, 0) (712, 3) (713, -1) (714, 17) (715, -6) (716, 27) (717, 33) (718, 32) (719, 36) (720, 15) (721, 12) (722, 41195) (723, 41195) (724, -19) (725, 1) (726, 2) (727, 1) (728, 9) (729, 10) (730, 48000) (731, 48000) (732, -26) (733, -22) (734, 18) (735, 16) (736, -1) (737, -7) (738, 31) (739, 35) (740, 30) (741, 25) (742, 15) (743, -5) (744, 34) (745, 154) (746, 19) (747, 26) (748, 24) (749, 46285) (750, 35424) (751, 35424) (752, 36366) (753, 15) (754, 15) (755, 36366) (756, 14) (757, -5) (758, 36366) (759, 36366) (760, 19) (761, 36366) (762, 36366) (763, 36366) (764, 36366) (765, 36366) (766, 36366) (767, 36366) (768, 36366) (769, 24) (770, 36366) (771, 36366) (772, -7534) (773, 36366) (774, 44787) (775, 48000) (776, 36366) (777, 36366) (778, 47575) (779, 29) (780, 31501) (781, 15) (782, 36366) (783, 36366) (784, 36366) (785, 25) (786, 16) (787, 1) (788, 16) (789, 36366) (790, 131) (791, 22) (792, -3) (793, 36366) (794, 36366) (795, 36366) (796, 36366) (797, 36366) (798, 27) (799, 3) (800, 36366) (801, -4) (802, 36366) (803, 38) (804, -26) (805, 6) (806, -4) (807, -31) (808, -1) (809, 36366) (810, 3) (811, 47071) (812, -10) (813, 36366) (814, 36366) (815, 48000) (816, 43394) (817, -10) (818, 17) (819, 10) (820, 2) (821, 9) (822, 37) (823, 9) (824, 7712) (825, 10) (826, -19) (827, -2) (828, 83) (829, 9) (830, 4) (831, 18) (832, 4) (833, 20) (834, 4) (835, 23) (836, 6) (837, 36366) (838, 48000) (839, 36366) (840, 18) (841, 121) (842, -10) (843, 46713) (844, -7) (845, -12) (846, 16) (847, 23) (848, 11) (849, 20) (850, -1) (851, 24) (852, 1) (853, -8) (0, -76) (1, -1) (2, -98) (3, -44476) (4, -17) (5, 12) (6, -29) (7, -18) (8, -80) (9, -1) (10, -33) (11, -49) (12, -22) (13, -13) (14, 36291) (15, -106) (16, -2) (17, -21) (18, -163) (19, -69) (20, 20) (21, -120) (22, 7) (23, -75) (24, 6) (25, 11) (26, 10) (27, 21) (28, 1) (29, 2066) (30, -4) (31, -249) (32, -237) (33, -1) (34, -7904) (35, -20) (36, -4) (37, 17) (38, -4) (39, 8) (40, 11) (41, -32) (42, -4) (43, -30) (44, 3) (45, -4) (46, 6) (47, 13091) (48, 9) (49, -5140) (50, -246) (51, 13) (52, 48000) (53, 48000) (54, -2) (55, -31) (56, -180) (57, -10) (58, -3) (59, 5) (60, 15) (61, 14) (62, -11) (63, -82) (64, -5) (65, -176) (66, -171) (67, -190) (68, -7) (69, 1) (70, -42) (71, 12) (72, 6) (73, 15) (74, -15) (75, 10) (76, -4) (77, -26) (78, -4) (79, -1) (80, -41) (81, -97) (82, -13) (83, -40) (84, -24) (85, -44) (86, -48) (87, -41) (88, 4) (89, 8) (90, 14) (91, -22) (92, 10) (93, -29) (94, -70) (95, -29) (96, -82) (97, -344) (98, -25) (99, -7) (100, 17) (101, 0) (102, -1) (103, 14) (104, 26) (105, 15) (106, -1) (107, -3) (108, 18) (109, 3) (110, 24) (111, -55) (112, -85) (113, -84) (114, -40) (115, -64) (116, -55) (117, -75) (118, -75) (119, -60) (120, -25) (121, -14) (122, -99) (123, 10) (124, -51) (125, 21) (126, -31) (127, 11) (128, 11) (129, 22) (130, 22) (131, 48) (132, 10) (133, -4117) (134, 19) (135, 1) (136, -12) (137, 16) (138, 221) (139, -2) (140, 66) (141, 15) (142, -51) (143, 81) (144, 20) (145, 12) (146, -1) (147, 3) (148, 0) (149, 147) (150, 48000) (151, 8) (152, 2914) (153, -10) (154, 13) (155, 162) (156, 40) (157, 3074) (158, 6) (159, 53) (160, 30) (161, -134) (162, 48000) (163, 7) (164, 22) (165, -10) (166, 4) (167, -7) (168, -29) (169, -36) (170, -30) (171, -168) (172, -171) (173, -190) (174, -14) (175, -181) (176, 1) (177, -172) (178, -178) (179, -175) (180, -16) (181, -179) (182, -15) (183, -167) (184, -178) (185, -171) (186, -169) (187, -88) (188, 11) (189, -77) (190, 25) (191, 31) (192, 7) (193, -7) (194, -8) (195, 11) (196, 11) (197, 19) (198, 2) (199, 6) (200, -11) (201, -32) (202, -19) (203, -22) (204, -97) (205, -101) (206, -78) (207, -85) (208, -42857) (209, -42873) (210, -44476) (211, -44476) (212, -8) (213, -25) (214, -63) (215, -27) (216, 10) (217, 11) (218, -87) (219, -79) (220, -59) (221, -77) (222, -34) (223, -68) (224, -62) (225, -24) (226, -59) (227, -34) (228, -68) (229, -80) (230, 8) (231, 15) (232, 5) (233, -15) (234, -89) (235, -66) (236, -2) (237, -7) (238, 0) (239, 12) (240, -47) (241, -35) (242, -4) (243, 1) (244, 0) (245, -17) (246, 10) (247, 3) (248, -66) (249, -74) (250, 26) (251, 10) (252, -26) (253, -13) (254, -65) (255, -64) (256, 0) (257, 12) (258, -31) (259, -13) (260, -3) (261, -6) (262, -12) (263, -12) (264, 0) (265, -3) (266, -26) (267, -40) (268, -62) (269, -55) (270, 20) (271, -10) (272, -83) (273, -81) (274, -57) (275, -72) (276, 20) (277, 16) (278, -97) (279, -84) (280, -245) (281, -220) (282, 13) (283, 4) (284, 0) (285, -9) (286, -92) (287, -74) (288, 33) (289, -65) (290, -61) (291, -57) (292, -20) (293, 0) (294, -20) (295, -8) (296, -101) (297, 8) (298, -75) (299, -60) (300, -58) (301, -26) (302, 15) (303, -19) (304, 11) (305, -80) (306, 7) (307, -28) (308, -235) (309, -54) (310, -14) (311, 5) (312, -29) (313, -17) (314, -17) (315, 2) (316, 12) (317, -81) (318, -2) (319, -57) (320, -75) (321, -68) (322, -9) (323, 14) (324, -6) (325, -11) (326, -101) (327, 8) (328, -82) (329, -74) (330, -63) (331, -2) (332, 9) (333, -18) (334, -4) (335, -86) (336, -15) (337, -45) (338, -240) (339, -33) (340, -15) (341, 9) (342, -18) (343, -15) (344, -24) (345, -4) (346, -7) (347, -102) (348, -15) (349, -189) (350, -163) (351, -46) (352, -48) (353, -170) (354, -177) (355, -176) (356, -163) (357, 48000) (358, 48000) (359, 2385) (360, -58) (361, -102) (362, 24) (363, 15) (364, 16) (365, -4) (366, 61) (367, 2) (368, -3) (369, 1) (370, 9) (371, 9) (372, -2) (373, -14) (374, 5) (375, -3) (376, 11) (377, 5) (378, -14) (379, 14) (380, 18) (381, -7) (382, 7) (383, 11) (384, 27) (385, -190) (386, -190) (387, 12) (388, 8) (389, 0) (390, 13) (391, 6) (392, 14) (393, -58) (394, 20) (395, 8) (396, -189) (397, -165) (398, -191) (399, -165) (400, -186) (401, 16) (402, -160) (403, 48000) (404, -181) (405, 18) (406, -174) (407, -164) (408, -180) (409, -166) (410, 48000) (411, 48000) (412, -160) (413, -180) (414, -164) (415, -166) (416, -178) (417, -162) (418, -66) (419, 20) (420, -77) (421, -4) (422, -182) (423, -160) (424, -61) (425, -81) (426, -5) (427, 23) (428, 29) (429, -4) (430, 22) (431, -7) (432, 15) (433, 11) (434, 1) (435, -12) (436, -1) (437, -11) (438, -164) (439, 14) (440, -165) (441, -171) (442, -160) (443, 13) (444, -191) (445, -165) (446, -173) (447, -178) (448, -167) (449, -14) (450, -180) (451, 8) (452, -182) (453, -170) (454, -84) (455, -6) (456, 18) (457, 2) (458, -20) (459, 17) (460, -86) (461, -72) (462, 17) (463, -7) (464, 26) (465, -1) (466, -74) (467, -8) (468, -73) (469, -10) (470, 13) (471, -4) (472, 0) (473, 14) (474, -13) (475, 14) (476, -14) (477, 8) (478, -186) (479, -180) (480, -82) (481, 6) (482, -85) (483, -160) (484, -20) (485, -2) (486, -50) (487, -36) (488, -160) (489, -1) (490, 15) (491, 3) (492, -5) (493, -24) (494, 22) (495, -6) (496, -1) (497, -9) (498, -185) (499, 4) (500, -4) (501, -81) (502, -165) (503, 22) (504, 2) (505, -1) (506, -86) (507, -93) (508, -13) (509, 18) (510, -55) (511, -7) (512, -91) (513, 10) (514, -79) (515, -64) (516, -50) (517, -2) (518, 12) (519, -76) (520, -222) (521, -227) (522, 5) (523, 19) (524, -94) (525, -94) (526, -105) (527, -91) (528, -230) (529, -230) (530, 74) (531, 84) (532, -94) (533, -74) (534, 0) (535, -6) (536, -4) (537, 0) (538, -14) (539, -23) (540, 14) (541, -1) (542, 10) (543, -241) (544, -226) (545, 2) (546, 8) (547, -89) (548, -82) (549, -99) (550, -95) (551, -230) (552, -217) (553, 98) (554, 76) (555, -74) (556, -100) (557, -3) (558, 4) (559, -17) (560, -15) (561, -15) (562, -6) (563, 13) (564, 2) (565, -212) (566, -220) (567, -10) (568, 14) (569, -99) (570, -97) (571, -92) (572, -96) (573, -223) (574, -223) (575, 97) (576, 98) (577, -101) (578, -96) (579, 7) (580, 0) (581, -11) (582, -6) (583, 0) (584, -16) (585, 18) (586, 17) (587, -442) (588, -765) (589, -38681) (590, -82) (591, -38681) (592, -164) (593, 0) (594, 23) (595, 14) (596, -181) (597, 10) (598, -62) (599, -8) (600, -168) (601, -191) (602, -70) (603, -85) (604, 7) (605, -33) (606, -51) (607, -66) (608, 19) (609, -40918) (610, 16) (611, 0) (612, 6) (613, 5) (614, -84) (615, 20) (616, -33) (617, 12) (618, 10) (619, -187) (620, -161) (621, -192) (622, -176) (623, -176) (624, 14) (625, -177) (626, 48000) (627, -168) (628, 3) (629, -188) (630, -165) (631, -165) (632, -188) (633, 48000) (634, 48000) (635, 3) (636, -4) (637, 8) (638, 3) (639, 4) (640, 12) (641, 12) (642, 11) (643, -115) (644, -89) (645, 19) (646, 0) (647, -36) (648, -26) (649, -1170) (650, -1170) (651, -107) (652, 9) (653, 25) (654, -12) (655, -19) (656, 7) (657, 5) (658, -13) (659, -16) (660, -18) (661, -18) (662, 2) (663, 10) (664, -18) (665, -6) (666, 4) (667, 22) (668, -86) (669, 14) (670, -19) (671, 10) (672, -71) (673, -57) (674, -93) (675, -1) (676, -18) (677, -828) (678, -828) (679, 21) (680, 17) (681, 5) (682, -10) (683, -39) (684, -22) (685, -600) (686, -582) (687, 21) (688, 6) (689, -21) (690, -23) (691, 6) (692, 1) (693, -18) (694, -26) (695, -25) (696, -18) (697, -14) (698, -13) (699, 31) (700, -93) (701, -109) (702, -26) (703, -29) (704, -24) (705, -5) (706, -26) (707, -24) (708, -114) (709, -90) (710, -16) (711, 1) (712, 4) (713, 4) (714, 23) (715, 1) (716, 2) (717, -4) (718, -24) (719, -18) (720, 22) (721, 1) (722, -89) (723, -106) (724, -16) (725, -3) (726, -11) (727, 0) (728, -10) (729, -23) (730, -94) (731, -95) (732, -1) (733, -27) (734, 10) (735, 12) (736, 15) (737, 4) (738, -12) (739, 1) (740, -19) (741, 0) (742, 17) (743, 23) (744, -1) (745, -81) (746, -217) (747, -19) (748, -206) (749, -30) (750, -124) (751, -134) (752, -172) (753, 9) (754, 14) (755, -186) (756, 5) (757, -2) (758, -191) (759, -173) (760, -5996) (761, -165) (762, -181) (763, -169) (764, -165) (765, -184) (766, -170) (767, -174) (768, -173) (769, -7) (770, -179) (771, -165) (772, -108) (773, -186) (774, -70) (775, -43) (776, -162) (777, -190) (778, -47946) (779, -3) (780, 121) (781, 10) (782, -166) (783, -160) (784, -181) (785, -3272) (786, -6) (787, 19) (788, 17) (789, -186) (790, -2) (791, 17) (792, -10) (793, -165) (794, -175) (795, -164) (796, -190) (797, -186) (798, -60) (799, 13) (800, -182) (801, 48000) (802, -177) (803, 2) (804, 1522) (805, -4) (806, 13) (807, 30) (808, 1) (809, -166) (810, 0) (811, -65) (812, 5) (813, -188) (814, -170) (815, -56) (816, -62) (817, 15) (818, 12) (819, 10) (820, -5) (821, -9) (822, -9) (823, -5) (824, -153) (825, 18) (826, 22) (827, 1) (828, -15) (829, 1) (830, 21) (831, 7) (832, -7) (833, -7) (834, 15) (835, -11) (836, 6) (837, -175) (838, 48000) (839, -168) (840, -46) (841, -93) (842, 14) (843, 36882) (844, 3) (845, -10) (846, 7) (847, -6) (848, 12) (849, -17) (850, 13) (851, 0) (852, 22) (853, -32) (0, 6) (1, -16) (2, -18) (3, 2872) (4, 3) (5, -16) (6, -22) (7, -2) (8, 2) (9, -20) (10, 3) (11, -7) (12, -16) (13, -3) (14, 36593) (15, 38) (16, -19) (17, -9) (18, -24) (19, -9) (20, -25) (21, 0) (22, 4) (23, 3) (24, 5) (25, 0) (26, -6) (27, 7) (28, -44) (29, 40746) (30, -14) (31, -5390) (32, -5377) (33, 274) (34, -22384) (35, -35) (36, -57) (37, 8) (38, -20) (39, -22) (40, -19) (41, -15) (42, -5) (43, 21) (44, -20) (45, -7) (46, -32) (47, -178) (48, -40) (49, 419) (50, 2189) (51, -21) (52, 48000) (53, 48000) (54, 12) (55, 21) (56, -15) (57, -44) (58, -25) (59, -12) (60, -9) (61, -21) (62, -25) (63, 0) (64, 10) (65, -32) (66, -29) (67, -34) (68, -11) (69, -1433) (70, -15) (71, -20) (72, -42) (73, 2) (74, -14) (75, -3) (76, -12) (77, -3) (78, 12) (79, 21) (80, -9) (81, -6) (82, 10) (83, -7) (84, 0) (85, -3) (86, 3) (87, -34) (88, 15) (89, 4) (90, -4) (91, 8) (92, -8) (93, 1) (94, -6) (95, 15) (96, -9) (97, 30) (98, 5) (99, -5) (100, -65) (101, -68) (102, -48) (103, -15) (104, 7) (105, 4) (106, -2) (107, -10) (108, -9) (109, 3) (110, 6) (111, -527) (112, -17) (113, -8) (114, -13) (115, -229) (116, 1330) (117, -22) (118, 7) (119, 28) (120, -4) (121, -31) (122, 7) (123, 12) (124, -16) (125, 4) (126, -5) (127, 208) (128, -16) (129, -13) (130, -2) (131, -12) (132, -7) (133, 361) (134, 8) (135, -3) (136, -7) (137, 141) (138, -779) (139, -13) (140, 2) (141, -12) (142, 16) (143, 9) (144, 14) (145, -26) (146, -8) (147, 3) (148, -17) (149, 27) (150, 27) (151, 11) (152, -38) (153, 7) (154, 8) (155, 15) (156, 31) (157, -6) (158, 20) (159, -5) (160, -10) (161, 11) (162, 2) (163, -6) (164, -12) (165, -20) (166, -5) (167, -10) (168, -1) (169, 9) (170, -13) (171, -32) (172, -24) (173, -23) (174, 3) (175, -29) (176, 8) (177, -25) (178, -32) (179, -4) (180, -13) (181, -4) (182, 8) (183, -11) (184, -11) (185, -18) (186, -26) (187, -21) (188, 3) (189, -13) (190, 28) (191, -15) (192, -4) (193, 14) (194, 3) (195, 16) (196, 12) (197, 15) (198, -46) (199, -36) (200, 3) (201, -6) (202, -6) (203, -18) (204, 5) (205, -16) (206, -13) (207, -7) (208, 2865) (209, 2861) (210, 2864) (211, 2874) (212, 2) (213, -9) (214, -4) (215, -16) (216, 0) (217, 1) (218, -22) (219, 1) (220, -13) (221, 7) (222, -7) (223, -11) (224, 2) (225, -7) (226, -14) (227, -7) (228, -13) (229, -9) (230, -21) (231, -18) (232, 11) (233, -1) (234, -12) (235, 5) (236, 5) (237, 0) (238, -7) (239, -6) (240, -28) (241, -3) (242, -14) (243, -5) (244, -13) (245, 5) (246, -1) (247, -19) (248, -1) (249, 8) (250, -5) (251, -3) (252, 8) (253, 2) (254, -15) (255, 1) (256, -23) (257, -12) (258, -11) (259, -5) (260, 15) (261, -3) (262, 11) (263, 19) (264, -22) (265, -20) (266, 4) (267, 6) (268, 1) (269, -15) (270, -12) (271, 6) (272, -16) (273, -2) (274, -7) (275, -7) (276, -8) (277, -16) (278, -1) (279, -16) (280, -58) (281, -50) (282, -10) (283, -5) (284, -15) (285, -13) (286, 8) (287, -8) (288, 0) (289, -13) (290, 9) (291, 2) (292, -1) (293, -1) (294, -1) (295, -5) (296, 2) (297, 7) (298, -3) (299, -7) (300, 4) (301, 7) (302, -10) (303, -23) (304, -9) (305, 8) (306, 6) (307, -25) (308, -59) (309, -34) (310, -2) (311, 2) (312, 10) (313, -3) (314, -4) (315, 6) (316, -6) (317, -6) (318, -1) (319, -10) (320, 3) (321, -13) (322, -18) (323, -6) (324, -24) (325, 2) (326, -14) (327, 13) (328, -7) (329, 6) (330, -14) (331, -14) (332, 5) (333, -1) (334, -17) (335, -6) (336, 10) (337, 0) (338, -46) (339, -14) (340, -8) (341, 17) (342, -4) (343, 12) (344, -17) (345, 3) (346, -4) (347, 1) (348, -2) (349, -4) (350, -30) (351, -37) (352, -31) (353, -24) (354, -14) (355, -25) (356, -26) (357, 48000) (358, 48000) (359, 7) (360, 3) (361, -11) (362, -10) (363, 10) (364, -10) (365, -6) (366, -6) (367, 4) (368, -8) (369, 13) (370, 5) (371, 3) (372, 8) (373, 2) (374, -7) (375, 14) (376, 6) (377, 1) (378, -3) (379, 15) (380, 12) (381, 10) (382, 19) (383, -10) (384, -25) (385, -14) (386, -21) (387, -2) (388, 1) (389, -5) (390, -19) (391, -2) (392, 15) (393, -57) (394, -10) (395, 5) (396, -15) (397, -26) (398, -11) (399, -4) (400, -32) (401, -16) (402, -22) (403, 48000) (404, -31) (405, -7) (406, -16) (407, -12) (408, -21) (409, -29) (410, 48000) (411, 48000) (412, -6) (413, -16) (414, -24) (415, -4) (416, -28) (417, -11) (418, -7) (419, 12) (420, -14) (421, -1) (422, -30) (423, -31) (424, 0) (425, -16) (426, -10) (427, -9) (428, 3) (429, 14) (430, -9) (431, 7) (432, -8) (433, 5) (434, -1) (435, -4) (436, -7) (437, 18) (438, -3) (439, 6) (440, -30) (441, -16) (442, -8) (443, -21) (444, -30) (445, -30) (446, -34) (447, -22) (448, -5) (449, -20) (450, -30) (451, -8) (452, -12) (453, -25) (454, -8) (455, -14) (456, 4) (457, 0) (458, -7) (459, -12) (460, -6) (461, 5) (462, 8) (463, 0) (464, -21) (465, -13) (466, 6) (467, -2) (468, 8) (469, 9) (470, 17) (471, -10) (472, -12) (473, 11) (474, -18) (475, 1) (476, 17) (477, -7) (478, -9) (479, -7) (480, -16) (481, 19) (482, -24) (483, -27) (484, -17) (485, -10) (486, 29) (487, 2) (488, -11) (489, 19) (490, 14) (491, 10) (492, -2) (493, -8) (494, -1) (495, 3) (496, 2) (497, -10) (498, -31) (499, 1) (500, 12) (501, -15) (502, -17) (503, -12) (504, 8) (505, 3) (506, -10) (507, 0) (508, 8) (509, -5) (510, -3) (511, 2) (512, -16) (513, -6) (514, 6) (515, -3) (516, 8) (517, -5) (518, -5) (519, -2) (520, -33) (521, -38) (522, -2) (523, 3) (524, -5) (525, -21) (526, 1) (527, -18) (528, -36) (529, -19) (530, -22) (531, -8) (532, 1) (533, 9) (534, 17) (535, 5) (536, 11) (537, 0) (538, -1) (539, 9) (540, 7) (541, 17) (542, -23) (543, -15) (544, -23) (545, 4) (546, -14) (547, -5) (548, -19) (549, 0) (550, -11) (551, -30) (552, -20) (553, -8) (554, -31) (555, -16) (556, 8) (557, 12) (558, -6) (559, -8) (560, 3) (561, 10) (562, -11) (563, -6) (564, 9) (565, -11) (566, -17) (567, -11) (568, -14) (569, -20) (570, -22) (571, 12) (572, -17) (573, -36) (574, -17) (575, -17) (576, -5) (577, -21) (578, -18) (579, -9) (580, 7) (581, 0) (582, 3) (583, -3) (584, -3) (585, 7) (586, 2) (587, -29) (588, 1) (589, 2049) (590, -12) (591, 2054) (592, -20) (593, -3) (594, -11) (595, -12) (596, -26) (597, 13) (598, -9) (599, 6) (600, -6) (601, -20) (602, -1) (603, 7) (604, 7) (605, -8) (606, 3) (607, 2) (608, -3) (609, 273) (610, 10) (611, 17) (612, -11) (613, -8) (614, -11) (615, -3) (616, 12) (617, 9) (618, -9) (619, -29) (620, -22) (621, -7) (622, -34) (623, -10) (624, -20) (625, -32) (626, 48000) (627, -19) (628, 3) (629, -27) (630, -32) (631, -8) (632, -12) (633, 48000) (634, 48000) (635, -4) (636, 7) (637, 0) (638, 9) (639, -7) (640, -11) (641, 7) (642, -8) (643, -38) (644, -15) (645, -19) (646, -16) (647, -4) (648, -22) (649, -7441) (650, -7447) (651, -27) (652, -2) (653, -4) (654, -17) (655, -20) (656, 17) (657, 19) (658, 7) (659, 14) (660, -5) (661, 9) (662, 8) (663, 17) (664, -15) (665, -11) (666, -5) (667, -8) (668, -1) (669, -8) (670, 0) (671, -3) (672, 6) (673, -2) (674, 3) (675, 5) (676, -9) (677, -29) (678, -32) (679, 11) (680, -9) (681, 5) (682, -16) (683, -19) (684, 2) (685, -9) (686, -18) (687, 3) (688, -4) (689, 13) (690, 5) (691, 8) (692, 1) (693, -18) (694, -4) (695, 0) (696, -5) (697, 13) (698, 14) (699, -19) (700, -9) (701, -33) (702, 7) (703, -3) (704, 10) (705, 14) (706, -14) (707, -6) (708, -24) (709, -13) (710, -12) (711, -16) (712, -7) (713, 4) (714, -3) (715, -12) (716, -19) (717, -7) (718, 0) (719, -5) (720, -6) (721, -8) (722, -33) (723, -19) (724, -17) (725, -1) (726, -3) (727, 13) (728, -5) (729, -18) (730, 7) (731, -11) (732, -15) (733, 6) (734, -13) (735, 14) (736, 11) (737, -3) (738, -8) (739, 3) (740, 0) (741, 4) (742, -13) (743, 19) (744, 134) (745, -9) (746, 858) (747, -5) (748, 446) (749, 28) (750, -39) (751, -9) (752, -9) (753, -6) (754, 6) (755, -33) (756, 18) (757, 15) (758, -9) (759, -20) (760, 1438) (761, -10) (762, -7) (763, -27) (764, -12) (765, -4) (766, -29) (767, -20) (768, -26) (769, 7) (770, -28) (771, -4) (772, -13) (773, -28) (774, 23) (775, 1923) (776, -18) (777, -5) (778, -46083) (779, -12) (780, 284) (781, 1) (782, -24) (783, -21) (784, -14) (785, -1436) (786, 2) (787, -3) (788, 13) (789, -27) (790, -14) (791, 10) (792, -12) (793, -6) (794, -3) (795, -11) (796, -7) (797, -29) (798, -42) (799, -8) (800, -9) (801, 11) (802, -31) (803, -6) (804, -6) (805, -10) (806, -10) (807, -7) (808, 18) (809, -19) (810, 3) (811, 1) (812, 17) (813, -9) (814, -34) (815, 3) (816, 0) (817, 3) (818, -7) (819, 3) (820, 10) (821, -20) (822, -12) (823, 12) (824, -16) (825, -5) (826, 6) (827, -11) (828, -10) (829, 10) (830, -7) (831, -6) (832, -9) (833, -4) (834, -1) (835, 3) (836, -3) (837, -18) (838, 48000) (839, -25) (840, -19) (841, -2) (842, 3) (843, 39347) (844, -6) (845, 18) (846, 4) (847, 7) (848, -6) (849, -2) (850, -3) (851, -12) (852, 5) (853, -1) (0, -2) (1, -21) (2, 10) (3, -5394) (4, -2) (5, 7) (6, -15) (7, -12) (8, -2) (9, -13) (10, -12) (11, -20) (12, -5) (13, 24) (14, 47625) (15, 10) (16, -1) (17, 10) (18, -9) (19, -28) (20, -40) (21, -13) (22, -11) (23, -31) (24, -42) (25, 6) (26, 22) (27, 27) (28, -183) (29, 46155) (30, -38) (31, -418) (32, -411) (33, -36) (34, -771) (35, -15) (36, 13) (37, 47847) (38, 47861) (39, 45279) (40, -56) (41, -4023) (42, 7) (43, -2) (44, 18) (45, -7) (46, -35) (47, -32) (48, -40) (49, 156) (50, 208) (51, 45279) (52, 48000) (53, 48000) (54, 61) (55, -18) (56, 3) (57, 15) (58, -8) (59, -43) (60, 19) (61, -30) (62, -3) (63, 1) (64, 10) (65, -12) (66, 0) (67, -9) (68, -57) (69, 21669) (70, -5) (71, 115) (72, 13) (73, 122) (74, 47676) (75, 35782) (76, 2) (77, 22) (78, 17) (79, 2) (80, -10) (81, 9) (82, -3) (83, -9) (84, -28) (85, -25) (86, -1) (87, -4024) (88, 0) (89, 2) (90, 7) (91, 24) (92, -3) (93, 11) (94, -4) (95, 13) (96, 4) (97, -38) (98, 25) (99, 9) (100, 1283) (101, 1303) (102, 1302) (103, -6) (104, 35782) (105, 16) (106, 17) (107, 35782) (108, 11) (109, 35782) (110, 35782) (111, -7340) (112, -21) (113, -18) (114, -18) (115, -1619) (116, -14816) (117, -21) (118, -12) (119, 3) (120, -2) (121, 8) (122, 5) (123, 17) (124, -92) (125, 4) (126, -20) (127, 592) (128, 44183) (129, 45449) (130, -39) (131, 39426) (132, -46) (133, -453) (134, 8) (135, -17) (136, -114) (137, 120) (138, -6598) (139, 22) (140, 39020) (141, -2461) (142, -14) (143, 39020) (144, 17) (145, -30) (146, 145) (147, 44183) (148, 44851) (149, 47971) (150, 48000) (151, 9) (152, -1441) (153, 7) (154, 0) (155, 47970) (156, 283) (157, 24911) (158, 5) (159, 44654) (160, 1) (161, -9) (162, 48000) (163, 85) (164, -55) (165, 12) (166, 27) (167, 2) (168, -11) (169, -5) (170, -20) (171, -11) (172, -5) (173, -5) (174, 15) (175, 10) (176, 6) (177, -5) (178, -19) (179, -1) (180, 16) (181, -21) (182, 7) (183, 1) (184, 1) (185, 9) (186, 8) (187, -10) (188, -55) (189, -26) (190, 62) (191, 45279) (192, 26) (193, 4) (194, 9) (195, -3) (196, 0) (197, 9) (198, -8) (199, 0) (200, 9) (201, -14) (202, 5) (203, -6) (204, 5) (205, -3) (206, -5) (207, -15) (208, -5315) (209, -5298) (210, -5385) (211, -5385) (212, 9) (213, -1) (214, -4) (215, 2) (216, -2) (217, 45279) (218, 10) (219, -6) (220, -16) (221, -26) (222, 7) (223, -3) (224, -29) (225, 23) (226, -14) (227, -2) (228, -21) (229, -6) (230, 63) (231, 72) (232, -6) (233, 20) (234, -6) (235, -6) (236, 164) (237, 162) (238, 23) (239, 5) (240, 8) (241, 5) (242, -3) (243, 5) (244, 23) (245, 12) (246, 17) (247, 0) (248, -32) (249, -10) (250, -13) (251, 4) (252, 5) (253, -5) (254, -29) (255, -24) (256, 1) (257, 7) (258, 5) (259, 6) (260, -4) (261, 9) (262, -1) (263, 11) (264, 17) (265, -7) (266, -9) (267, -16) (268, -21) (269, -20) (270, 6) (271, -6) (272, -15) (273, 6) (274, -12) (275, -28) (276, 1) (277, -2) (278, -9) (279, -5) (280, -61) (281, -51) (282, -6) (283, 22) (284, 21) (285, -4) (286, -14) (287, -7) (288, 45279) (289, -32) (290, -24) (291, -23) (292, 47705) (293, 1) (294, 47829) (295, 15) (296, -4) (297, 4) (298, -4) (299, -5) (300, -11) (301, 47705) (302, -11) (303, 47590) (304, 2) (305, 3) (306, 26) (307, -2) (308, -61) (309, -10) (310, -19) (311, -3) (312, 18) (313, -1) (314, -7) (315, 10) (316, 3) (317, -14) (318, 27) (319, -28) (320, -26) (321, -25) (322, 47705) (323, -10) (324, 47829) (325, 2) (326, 6) (327, 1) (328, -14) (329, -10) (330, -31) (331, 47705) (332, -7) (333, 47590) (334, -6) (335, -4) (336, 22) (337, -26) (338, -55) (339, 10) (340, -16) (341, 8) (342, -2) (343, 23) (344, 14) (345, -7) (346, 10) (347, -19) (348, 2) (349, -5) (350, -16) (351, -99) (352, -88) (353, -2) (354, -5) (355, -8) (356, 7) (357, 48000) (358, 48000) (359, 2021) (360, -32) (361, 1) (362, 18) (363, 3) (364, 18) (365, 20) (366, 551) (367, 47) (368, 9) (369, 24) (370, 8) (371, 6) (372, 8) (373, -16) (374, -5) (375, -2) (376, 12) (377, -1153) (378, -15) (379, 19) (380, 0) (381, 1) (382, 1) (383, 22) (384, 45279) (385, 1) (386, -10) (387, 18) (388, -15) (389, 27) (390, -2) (391, -10) (392, 13) (393, 10) (394, 2) (395, 45279) (396, 2) (397, 7) (398, 9) (399, -4) (400, 5) (401, 45279) (402, -1) (403, 48000) (404, 8) (405, 45279) (406, -11) (407, -7) (408, -9) (409, -8) (410, 48000) (411, 48000) (412, 2) (413, -9) (414, -6) (415, -2) (416, -19) (417, 5) (418, -19) (419, -5) (420, -6) (421, 13) (422, -19) (423, -8) (424, -12) (425, -23) (426, 19) (427, -15) (428, -2) (429, 18) (430, 20) (431, -4) (432, 2) (433, 12) (434, 3) (435, -21) (436, 3) (437, 13) (438, -3) (439, -5) (440, 11) (441, 4) (442, -16) (443, 2) (444, -15) (445, -1) (446, -11) (447, -13) (448, -6) (449, 5) (450, -10) (451, 12) (452, -10) (453, -8) (454, -10) (455, 10) (456, 14) (457, -10) (458, 3) (459, 3) (460, -21) (461, -26) (462, 25) (463, 10) (464, 45279) (465, 1) (466, -13) (467, 23) (468, -9) (469, 1) (470, 10) (471, 16) (472, 39) (473, -7) (474, -16) (475, -1) (476, 1) (477, -3) (478, -7) (479, 4) (480, -17) (481, 12) (482, -27) (483, 5) (484, -17) (485, 53) (486, 11) (487, -2) (488, -13) (489, -3) (490, 19) (491, 7) (492, 1) (493, -5) (494, -2) (495, 14) (496, 25) (497, 12) (498, -1) (499, 16) (500, 20) (501, -28) (502, -9) (503, 20) (504, 50) (505, 22) (506, 11) (507, -18) (508, 11) (509, 9) (510, 8) (511, -12) (512, -13) (513, 45279) (514, -4) (515, -21) (516, 3) (517, 8) (518, 7) (519, 11) (520, -12) (521, -30) (522, 3) (523, 16) (524, 10) (525, -3) (526, -10) (527, -5) (528, -16) (529, -9) (530, -14) (531, -1) (532, -6) (533, 9) (534, 16) (535, 1) (536, 15) (537, 11) (538, 0) (539, 3) (540, -4) (541, -2) (542, 45279) (543, -30) (544, -5) (545, -1) (546, 6) (547, 1) (548, -16) (549, -1) (550, -12) (551, 8) (552, -15) (553, -26) (554, -4) (555, -17) (556, 0) (557, 11) (558, 25) (559, 15) (560, 18) (561, 6) (562, 12) (563, 4) (564, 6) (565, -27) (566, -22) (567, -11) (568, 16) (569, 2) (570, -7) (571, -3) (572, -8) (573, 8) (574, -16) (575, -6) (576, -22) (577, 4) (578, -7) (579, 7) (580, 18) (581, -8) (582, -1) (583, 19) (584, -4) (585, -4) (586, 26) (587, -334) (588, 452) (589, -39996) (590, -3) (591, -44628) (592, -56) (593, -42) (594, 9) (595, 1) (596, -8) (597, -6) (598, -10) (599, 4) (600, 1) (601, -18) (602, -24) (603, -18) (604, 27) (605, -24) (606, -19) (607, -22) (608, -2) (609, 8715) (610, 13) (611, 6) (612, 14) (613, 21) (614, -12) (615, 20) (616, -4) (617, 14) (618, 45279) (619, -11) (620, -7) (621, -21) (622, -1) (623, 3) (624, 45279) (625, -14) (626, 48000) (627, -3) (628, 45279) (629, -18) (630, 8) (631, 9) (632, -14) (633, 48000) (634, 48000) (635, -46) (636, 7) (637, 18) (638, 42) (639, 16) (640, 5) (641, 26) (642, 9) (643, 10) (644, 6) (645, -12) (646, 7) (647, -4) (648, -1) (649, -33890) (650, -33868) (651, -16) (652, -8) (653, 2) (654, 6) (655, -10) (656, 41) (657, 26) (658, 23) (659, -7) (660, 5) (661, 19) (662, 48) (663, 37) (664, -22) (665, -9) (666, 24) (667, 12) (668, -20) (669, 3) (670, 1) (671, 45279) (672, -27) (673, -15) (674, -14) (675, 27) (676, 3) (677, 10) (678, -1) (679, 77) (680, 69) (681, 8) (682, 8) (683, -22) (684, -1) (685, -20) (686, -8) (687, 17) (688, 13) (689, 15) (690, 19) (691, -4) (692, 10) (693, 19) (694, 18) (695, 10) (696, -3) (697, 12) (698, -5) (699, 45279) (700, 7) (701, -13) (702, 47829) (703, 47829) (704, 20) (705, 16) (706, 0) (707, -18) (708, -15) (709, -14) (710, 47873) (711, 47873) (712, 27) (713, 1) (714, 24) (715, 25) (716, 8) (717, 10) (718, 14) (719, -3) (720, 0) (721, 7) (722, -14) (723, 1) (724, 47829) (725, 47829) (726, -2) (727, 0) (728, -21) (729, -29) (730, -22) (731, -27) (732, 47873) (733, 47873) (734, 0) (735, -4) (736, 6) (737, -1) (738, 7) (739, 19) (740, 15) (741, -1) (742, 9) (743, 16) (744, 105) (745, -20) (746, 41780) (747, 18) (748, 26218) (749, -23) (750, 12) (751, -18) (752, -2) (753, -1) (754, 16) (755, 0) (756, 25) (757, 19) (758, 5) (759, -12) (760, -184) (761, -19) (762, -8) (763, -19) (764, 3) (765, -4) (766, -18) (767, -18) (768, 1) (769, 4) (770, 8) (771, -10) (772, -39) (773, -10) (774, 6886) (775, -6602) (776, 0) (777, -3) (778, -45405) (779, -10) (780, -103) (781, 21) (782, -3) (783, -9) (784, -20) (785, -33) (786, -7) (787, 26) (788, 25) (789, 6) (790, -7) (791, 9) (792, 25) (793, 1) (794, 5) (795, 1) (796, -14) (797, 8) (798, -159) (799, 6) (800, -7) (801, 48000) (802, -12) (803, -19) (804, 39084) (805, 4) (806, 5) (807, 26) (808, 7) (809, -13) (810, 3) (811, -11) (812, -1) (813, 7) (814, -21) (815, -22) (816, -29) (817, -3) (818, 3) (819, -5) (820, 27) (821, 9) (822, 22) (823, 22) (824, -28) (825, 15) (826, 15) (827, 12) (828, -4) (829, 6) (830, 9) (831, -24) (832, -2) (833, 18) (834, 2) (835, 3) (836, 25) (837, -5) (838, 48000) (839, 3) (840, 17) (841, 322) (842, 45279) (843, 47998) (844, 0) (845, 9) (846, 2) (847, -16) (848, 8) (849, 3) (850, -1) (851, 7) (852, 45279) (853, -30) (0, 48000) (1, 15) (2, 127) (3, 48000) (4, 5) (5, 10) (6, 1329) (7, 1356) (8, 128) (9, 6) (10, 20) (11, 21) (12, -2) (13, 3) (14, 1) (15, 81) (16, -4) (17, 12) (18, 48000) (19, 48000) (20, 1) (21, 48000) (22, -16) (23, 48000) (24, 12) (25, 6) (26, -2) (27, -6) (28, 15) (29, 10) (30, 408) (31, 8) (32, 15) (33, 34726) (34, 31) (35, 41745) (36, 40957) (37, -25) (38, 3) (39, -10) (40, -12) (41, -11) (42, 7) (43, 48000) (44, 32) (45, 7) (46, 426) (47, 12) (48, 428) (49, 19) (50, 33) (51, -9) (52, 48000) (53, 48000) (54, 22) (55, 48000) (56, 48000) (57, 41745) (58, 41745) (59, 417) (60, -5) (61, 422) (62, 27) (63, 77) (64, 16) (65, 48000) (66, 48000) (67, 48000) (68, 12) (69, 2) (70, 33) (71, -21) (72, 41745) (73, -16) (74, -4) (75, -13) (76, -18) (77, 19) (78, -4) (79, 11) (80, 3) (81, 62) (82, -12) (83, 10) (84, 12) (85, 24) (86, 15) (87, 5) (88, 9) (89, 14) (90, 7) (91, 1) (92, 8) (93, 1) (94, 48000) (95, 6) (96, 645) (97, 305) (98, 28) (99, 2) (100, -18) (101, 7) (102, -16) (103, -24) (104, -14) (105, -3) (106, -22) (107, -3) (108, -16) (109, 3) (110, 8) (111, 44159) (112, 48000) (113, 48000) (114, 26) (115, 44159) (116, 44159) (117, 48000) (118, 6862) (119, 6865) (120, 5) (121, 41745) (122, 61) (123, 12) (124, 8) (125, -13) (126, 13) (127, 9) (128, -15) (129, -25) (130, -10) (131, -12) (132, -17) (133, 20) (134, -4) (135, -10) (136, 11) (137, -2) (138, 2) (139, 6) (140, -13) (141, -15) (142, 160) (143, -18) (144, -12) (145, -15) (146, -3) (147, -16) (148, -38) (149, -3) (150, -3) (151, 4) (152, 3) (153, -20) (154, -6) (155, -3) (156, -13) (157, -4) (158, -8) (159, -14) (160, -23) (161, 48000) (162, -21) (163, -14) (164, -18) (165, 39107) (166, 5) (167, 28) (168, 1327) (169, 1347) (170, 27) (171, 48000) (172, 48000) (173, 48000) (174, -11) (175, 48000) (176, 1) (177, 48000) (178, 48000) (179, 48000) (180, 0) (181, 48000) (182, 3) (183, 48000) (184, 48000) (185, 48000) (186, 48000) (187, 48000) (188, -2) (189, 48000) (190, 7) (191, -17) (192, 2) (193, 16) (194, 3) (195, 12) (196, 15) (197, 6) (198, 39107) (199, 39107) (200, 12) (201, 18) (202, 22) (203, 8) (204, 125) (205, 125) (206, 105) (207, 108) (208, 48000) (209, 48000) (210, 48000) (211, 48000) (212, 21) (213, 6) (214, 28) (215, 10) (216, 15) (217, -22) (218, 48000) (219, 48000) (220, 48000) (221, 155) (222, 16) (223, 112) (224, 53) (225, -14) (226, 48000) (227, 22) (228, 48000) (229, 48000) (230, -3) (231, 9) (232, 7) (233, -7) (234, 48000) (235, 48000) (236, 6) (237, -16) (238, 3) (239, -6) (240, 22) (241, 21) (242, 30) (243, 7) (244, 6) (245, 20) (246, -12) (247, 9) (248, 48000) (249, 48000) (250, -8) (251, -26) (252, 1351) (253, 1332) (254, 48000) (255, 48000) (256, -23) (257, -22) (258, 1329) (259, 1354) (260, 19) (261, 28) (262, 27) (263, 2) (264, 27) (265, 29) (266, 1338) (267, 1349) (268, 48000) (269, 48000) (270, 13) (271, 6) (272, 68) (273, 83) (274, 48000) (275, 48000) (276, 1) (277, -17) (278, 65) (279, 71) (280, 48000) (281, 48000) (282, 22) (283, 26) (284, 6) (285, 14) (286, 127) (287, 132) (288, -10) (289, 48000) (290, 48000) (291, 48000) (292, -25) (293, -14) (294, -22) (295, 29) (296, 54) (297, 3) (298, 48000) (299, 48000) (300, 48000) (301, -8) (302, 11) (303, 2) (304, 16) (305, 81) (306, 5) (307, 5) (308, 48000) (309, 31) (310, 22) (311, 31) (312, 31) (313, 11) (314, 24) (315, 5) (316, 27) (317, 120) (318, 5) (319, 48000) (320, 48000) (321, 48000) (322, -7) (323, -3) (324, 5) (325, 25) (326, 65) (327, -12) (328, 48000) (329, 48000) (330, 48000) (331, -5) (332, 1) (333, -25) (334, 18) (335, 55) (336, 17) (337, 7) (338, 48000) (339, 29) (340, 2) (341, 26) (342, 26) (343, 0) (344, 4) (345, 19) (346, 7) (347, 150) (348, 7) (349, 48000) (350, 48000) (351, 4) (352, 23) (353, 48000) (354, 48000) (355, 48000) (356, 48000) (357, 48000) (358, 48000) (359, -22) (360, 48000) (361, 135) (362, 13) (363, 2) (364, 16) (365, -1) (366, -12) (367, 30) (368, 16) (369, 9) (370, 12) (371, 3) (372, 4) (373, 22) (374, 4) (375, 9) (376, -6) (377, 25) (378, 23) (379, 15) (380, 5) (381, -15) (382, 17) (383, -6) (384, -24) (385, 48000) (386, 48000) (387, -10) (388, -4) (389, 8) (390, -5) (391, -1) (392, 4) (393, 1553) (394, 18) (395, -16) (396, 48000) (397, 48000) (398, 48000) (399, 48000) (400, 48000) (401, -26) (402, 48000) (403, 48000) (404, 48000) (405, -31) (406, 48000) (407, 48000) (408, 48000) (409, 48000) (410, 48000) (411, 48000) (412, 48000) (413, 48000) (414, 48000) (415, 48000) (416, 48000) (417, 48000) (418, 48000) (419, 16) (420, 48000) (421, -13) (422, 48000) (423, 48000) (424, 48000) (425, 48000) (426, -5) (427, 7) (428, 15) (429, 9) (430, 0) (431, -6) (432, 15) (433, 16) (434, -13) (435, 10) (436, 17) (437, 7) (438, 48000) (439, 12) (440, 48000) (441, 48000) (442, 48000) (443, -4) (444, 48000) (445, 48000) (446, 48000) (447, 48000) (448, 48000) (449, 23) (450, 48000) (451, 0) (452, 48000) (453, 48000) (454, 48000) (455, 11) (456, 2) (457, 0) (458, 7) (459, 0) (460, 48000) (461, 48000) (462, 4) (463, 16) (464, -14) (465, 6) (466, 48000) (467, 3) (468, 48000) (469, -5) (470, -6) (471, -10) (472, 29) (473, -1) (474, -1) (475, -11) (476, 18) (477, 0) (478, 48000) (479, 48000) (480, 33) (481, 15) (482, 47979) (483, 48000) (484, 33) (485, 19) (486, 12) (487, 16) (488, 48000) (489, 3) (490, 7) (491, -13) (492, -6) (493, 16) (494, -15) (495, 12) (496, -11) (497, 3) (498, 48000) (499, -3) (500, 17) (501, 48000) (502, 48000) (503, 11) (504, 25) (505, 27) (506, 107) (507, 125) (508, 2) (509, -6) (510, 65) (511, -17) (512, 122) (513, -27) (514, 48000) (515, 48000) (516, 64) (517, 13) (518, 5) (519, 125) (520, 48000) (521, 48000) (522, 4) (523, 6) (524, 144) (525, 141) (526, 9894) (527, 9905) (528, 48000) (529, 48000) (530, -22) (531, -20) (532, 67) (533, 76) (534, -12) (535, -11) (536, 15) (537, 5) (538, 25) (539, 18) (540, -1) (541, 3) (542, -13) (543, 48000) (544, 48000) (545, -10) (546, 2) (547, 131) (548, 125) (549, 9882) (550, 9878) (551, 48000) (552, 48000) (553, -5) (554, -15) (555, 67) (556, 69) (557, 16) (558, -7) (559, 23) (560, 25) (561, 13) (562, 0) (563, -9) (564, -10) (565, 48000) (566, 48000) (567, 1) (568, -8) (569, 121) (570, 124) (571, 9899) (572, 9896) (573, 48000) (574, 48000) (575, -20) (576, -28) (577, 81) (578, 77) (579, -8) (580, 16) (581, 22) (582, 29) (583, 16) (584, 14) (585, -2) (586, 15) (587, 48000) (588, 47945) (589, 48000) (590, 40) (591, 48000) (592, 48000) (593, 8) (594, -9) (595, 10) (596, 48000) (597, 3) (598, 48000) (599, -12) (600, 48000) (601, 48000) (602, 48000) (603, 48000) (604, -8) (605, 33) (606, 47998) (607, 1032) (608, 11) (609, 11862) (610, 0) (611, 11) (612, 15) (613, -1) (614, 48000) (615, -3) (616, 33) (617, -8) (618, -25) (619, 48000) (620, 48000) (621, 48000) (622, 48000) (623, 48000) (624, -17) (625, 48000) (626, 48000) (627, 48000) (628, -3) (629, 48000) (630, 48000) (631, 48000) (632, 48000) (633, 48000) (634, 48000) (635, 6) (636, 16) (637, -7) (638, 27) (639, 7) (640, -4) (641, -5) (642, 0) (643, 48000) (644, 48000) (645, -8) (646, -12) (647, 1339) (648, 1354) (649, 38020) (650, 38010) (651, 48000) (652, -10) (653, -10) (654, 1329) (655, 1329) (656, -26) (657, -5) (658, 9) (659, 29) (660, 16) (661, 18) (662, -5) (663, 9) (664, 21) (665, 7) (666, -2) (667, 2) (668, 116) (669, -7) (670, -8) (671, -11) (672, 48000) (673, 48000) (674, 134) (675, -9) (676, 11) (677, 48000) (678, 48000) (679, -15) (680, -15) (681, 19) (682, -1) (683, 28) (684, 21) (685, 48000) (686, 48000) (687, -2) (688, -18) (689, -6) (690, 5) (691, 6) (692, 11) (693, 31) (694, 16) (695, 11) (696, 3) (697, 14) (698, 14) (699, -18) (700, 48000) (701, 48000) (702, -24) (703, -9) (704, 10) (705, 17) (706, 23) (707, 4) (708, 48000) (709, 48000) (710, -19) (711, -7) (712, -8) (713, 6) (714, -1) (715, 10) (716, 1) (717, 11) (718, 12) (719, 5) (720, 5) (721, 17) (722, 48000) (723, 48000) (724, 3) (725, -17) (726, 9) (727, -12) (728, 8) (729, 21) (730, 48000) (731, 48000) (732, -4) (733, -9) (734, 12) (735, 0) (736, 1) (737, 0) (738, 15) (739, 29) (740, 20) (741, 23) (742, 3) (743, 13) (744, 11) (745, 169) (746, 21) (747, 15) (748, 12) (749, 48000) (750, 48000) (751, 48000) (752, 48000) (753, -3) (754, -9) (755, 48000) (756, 6) (757, 14) (758, 48000) (759, 48000) (760, 23) (761, 48000) (762, 48000) (763, 48000) (764, 48000) (765, 48000) (766, 48000) (767, 48000) (768, 48000) (769, -10) (770, 48000) (771, 48000) (772, 26717) (773, 48000) (774, 42906) (775, 48000) (776, 48000) (777, 48000) (778, 47936) (779, 33) (780, 35536) (781, -9) (782, 48000) (783, 48000) (784, 48000) (785, 10) (786, -20) (787, -8) (788, 15) (789, 48000) (790, 19) (791, 3) (792, -12) (793, 48000) (794, 48000) (795, 48000) (796, 48000) (797, 48000) (798, 17) (799, -6) (800, 48000) (801, -12) (802, 48000) (803, -12) (804, -20) (805, -9) (806, -4) (807, 9) (808, 6) (809, 48000) (810, 14) (811, 48000) (812, -11) (813, 48000) (814, 48000) (815, 48000) (816, 48000) (817, -11) (818, 9) (819, 5) (820, 12) (821, 23) (822, 33) (823, -14) (824, 137) (825, 4) (826, 16) (827, 11) (828, 12) (829, -7) (830, -10) (831, -14) (832, 8) (833, 1) (834, -6) (835, 28) (836, 9) (837, 48000) (838, 48000) (839, 48000) (840, 18) (841, 623) (842, -28) (843, 46495) (844, -7) (845, -7) (846, -8) (847, 6) (848, 11) (849, 18) (850, -6) (851, 9) (852, -11) (853, -15) (0, 0) (1, -22) (2, -10) (3, -6284) (4, -1) (5, 17) (6, 4) (7, 3) (8, 21) (9, -7) (10, 24) (11, -7) (12, 21) (13, 10) (14, 41398) (15, 17) (16, 18) (17, 0) (18, -4) (19, 22) (20, -32) (21, 5) (22, -12) (23, -6) (24, -40) (25, 5) (26, -3) (27, 24) (28, -10329) (29, 42376) (30, -3) (31, -5896) (32, -5893) (33, 2) (34, -906) (35, -11) (36, -29) (37, 25) (38, 43) (39, 35) (40, -240) (41, -162) (42, 5) (43, -110) (44, 7) (45, -3) (46, 3) (47, 9) (48, 0) (49, -796) (50, -2207) (51, 40) (52, 48000) (53, 48000) (54, 87) (55, -116) (56, -6) (57, -8) (58, -8) (59, 16) (60, 7) (61, -15) (62, -5) (63, 10) (64, 11) (65, 5) (66, -9) (67, 14) (68, -27) (69, -68) (70, -3) (71, -8) (72, 2) (73, 10) (74, 20) (75, -15) (76, 18) (77, 19) (78, 12) (79, -3) (80, 11) (81, -3) (82, 14) (83, 21) (84, 16) (85, -6) (86, 17) (87, -160) (88, 12) (89, -2) (90, 19) (91, -4) (92, -4) (93, -8) (94, 11) (95, 14) (96, 8) (97, -14) (98, 12) (99, 24) (100, -5) (101, -10) (102, -22) (103, 18) (104, -25) (105, 12) (106, 2) (107, -3) (108, 6) (109, 2) (110, 2) (111, 14) (112, -5) (113, 8) (114, 19) (115, 16) (116, 4) (117, 8) (118, 13) (119, -4) (120, 20) (121, 1) (122, 6) (123, 1) (124, 21) (125, -10) (126, 23) (127, -41) (128, 103) (129, 48) (130, -159) (131, 54) (132, -136) (133, -18) (134, 0) (135, -5) (136, -72) (137, 208) (138, 66) (139, 8) (140, 49) (141, -638) (142, 12) (143, 55) (144, 15) (145, -53) (146, 15) (147, 83) (148, 0) (149, 401) (150, 47987) (151, -7) (152, -385) (153, -11) (154, -13) (155, 910) (156, 65) (157, 0) (158, 0) (159, 39) (160, 16) (161, 14) (162, 47987) (163, 14) (164, 3) (165, -10) (166, -5) (167, 19) (168, -5) (169, 1) (170, 9) (171, 12) (172, 2) (173, -6) (174, 6) (175, -9) (176, 9) (177, -4) (178, 2) (179, 11) (180, 20) (181, -8) (182, 11) (183, 4) (184, -1) (185, 12) (186, -10) (187, 11) (188, -244) (189, -3) (190, 21) (191, 41) (192, 19) (193, 20) (194, -2) (195, 11) (196, 9) (197, 10) (198, -12) (199, -7) (200, 21) (201, 27) (202, 6) (203, 2) (204, -7) (205, 15) (206, -2) (207, 14) (208, -6265) (209, -6244) (210, -6275) (211, -6292) (212, 18) (213, -3) (214, 9) (215, -4) (216, 21) (217, 46) (218, 17) (219, 16) (220, 16) (221, 16) (222, 1) (223, 15) (224, 10) (225, 8) (226, -2) (227, -5) (228, -9) (229, 12) (230, 20) (231, 18) (232, 11) (233, -5) (234, -9) (235, 17) (236, -6) (237, 3) (238, 10) (239, -7) (240, -6) (241, -1) (242, -4) (243, 21) (244, 4) (245, 13) (246, -6) (247, 2) (248, -1) (249, 21) (250, -4) (251, -5) (252, 16) (253, 3) (254, 18) (255, 8) (256, 21) (257, -4) (258, 16) (259, 21) (260, 28) (261, 22) (262, 17) (263, 9) (264, 18) (265, 17) (266, 1) (267, 17) (268, -6) (269, -8) (270, -31) (271, -24) (272, -1) (273, -4) (274, -6) (275, 12) (276, -3) (277, -23) (278, -8) (279, -4) (280, 0) (281, -2) (282, 1) (283, -8) (284, 9) (285, -4) (286, 8) (287, 6) (288, 36) (289, 1) (290, 4) (291, -6) (292, 45) (293, -24) (294, 34) (295, 17) (296, 23) (297, -4) (298, 12) (299, -6) (300, -7) (301, 36) (302, -20) (303, 25) (304, 19) (305, 6) (306, -4) (307, 12) (308, 16) (309, -6) (310, 22) (311, 22) (312, 1) (313, -2) (314, 21) (315, 17) (316, 4) (317, 7) (318, 0) (319, 12) (320, 17) (321, 14) (322, 40) (323, -4) (324, 44) (325, 6) (326, 12) (327, 26) (328, 6) (329, 1) (330, -8) (331, 33) (332, -29) (333, 26) (334, 21) (335, 21) (336, 23) (337, 19) (338, 16) (339, 11) (340, -6) (341, 14) (342, 11) (343, 2) (344, 20) (345, 7) (346, -4) (347, 1) (348, -10) (349, 3) (350, -11) (351, 10) (352, -11) (353, 15) (354, 10) (355, -7) (356, -2) (357, 48000) (358, 48000) (359, 26) (360, 13) (361, -3) (362, 2) (363, 19) (364, 11) (365, 1) (366, 18) (367, 6) (368, 1) (369, -3) (370, -10) (371, 11) (372, -7) (373, 12) (374, -10) (375, -9) (376, -8) (377, 21) (378, 2) (379, -8) (380, 4) (381, -29) (382, 18) (383, 0) (384, 34) (385, 9) (386, 12) (387, -1) (388, -1) (389, 17) (390, 0) (391, 11) (392, -6) (393, 12) (394, 5) (395, 47) (396, -6) (397, -5) (398, -9) (399, 6) (400, 10) (401, 31) (402, -12) (403, 48000) (404, 12) (405, 52) (406, 16) (407, 15) (408, 12) (409, -4) (410, 48000) (411, 48000) (412, 9) (413, 16) (414, 12) (415, 16) (416, 5) (417, 4) (418, 5) (419, -1) (420, 2) (421, 8) (422, -6) (423, 1) (424, 10) (425, 11) (426, -16) (427, 13) (428, -2) (429, -13) (430, 1) (431, 6) (432, -4) (433, -2) (434, 0) (435, 15) (436, -9) (437, -4) (438, 15) (439, 11) (440, 3) (441, 12) (442, 19) (443, -12) (444, 9) (445, 10) (446, 19) (447, -7) (448, -6) (449, 1) (450, 9) (451, 12) (452, -7) (453, 15) (454, 18) (455, 8) (456, 2) (457, 14) (458, 4) (459, -3) (460, -7) (461, 15) (462, 18) (463, -2) (464, 27) (465, -2) (466, 0) (467, -8) (468, 6) (469, -8) (470, 18) (471, 1) (472, 18) (473, 16) (474, -9) (475, -1) (476, 9) (477, -10) (478, 8) (479, 12) (480, 4) (481, -3) (482, -1) (483, 7) (484, -6) (485, -4) (486, 1) (487, 8) (488, -8) (489, 13) (490, -17) (491, -7) (492, 5) (493, 20) (494, 9) (495, 5) (496, -5) (497, -7) (498, 8) (499, 11) (500, 14) (501, 9) (502, 10) (503, 10) (504, 2) (505, 16) (506, -8) (507, 18) (508, 18) (509, 13) (510, 12) (511, -11) (512, -8) (513, 56) (514, 17) (515, -6) (516, -6) (517, -14) (518, 19) (519, -5) (520, 22) (521, 17) (522, -19) (523, -17) (524, 14) (525, 17) (526, 20) (527, 19) (528, 10) (529, 11) (530, -17) (531, -26) (532, -6) (533, 1) (534, -11) (535, 5) (536, -5) (537, -4) (538, 6) (539, 21) (540, 19) (541, -6) (542, 33) (543, 23) (544, -5) (545, -29) (546, -28) (547, -3) (548, -2) (549, 18) (550, 3) (551, -2) (552, 14) (553, -12) (554, -18) (555, 3) (556, 11) (557, 7) (558, -2) (559, -3) (560, -4) (561, 21) (562, 8) (563, -2) (564, -1) (565, 9) (566, 17) (567, -19) (568, -9) (569, -2) (570, 1) (571, 8) (572, 1) (573, 10) (574, 9) (575, -23) (576, -18) (577, 11) (578, 11) (579, 16) (580, 5) (581, -8) (582, -8) (583, -3) (584, 18) (585, 10) (586, 8) (587, -31) (588, -40) (589, -23812) (590, 10) (591, -23828) (592, -102) (593, -7) (594, -8) (595, -9) (596, 10) (597, -5) (598, 6) (599, -6) (600, 7) (601, 14) (602, 22) (603, 21) (604, 6) (605, -2) (606, 7) (607, 27) (608, -8) (609, -807) (610, 18) (611, 8) (612, -17) (613, 16) (614, 18) (615, 17) (616, 6) (617, 0) (618, 37) (619, 10) (620, -4) (621, 19) (622, -11) (623, -10) (624, 30) (625, 8) (626, 48000) (627, 13) (628, 58) (629, 8) (630, -7) (631, 7) (632, 1) (633, 48000) (634, 48000) (635, -7) (636, 6) (637, 25) (638, 13) (639, 11) (640, 26) (641, 4) (642, 2) (643, -8) (644, 2) (645, -4) (646, 20) (647, 14) (648, 5) (649, -1068) (650, -1061) (651, 15) (652, -2) (653, 7) (654, 15) (655, -1) (656, -1) (657, 25) (658, -6) (659, -5) (660, 8) (661, -2) (662, 15) (663, 23) (664, 5) (665, 3) (666, 13) (667, 17) (668, -5) (669, 1) (670, 8) (671, 31) (672, 19) (673, 18) (674, -6) (675, -6) (676, 18) (677, -6) (678, 23) (679, 9) (680, 3) (681, 4) (682, -2) (683, 8) (684, 20) (685, -11) (686, 14) (687, -14) (688, 16) (689, 23) (690, -2) (691, 3) (692, -9) (693, 18) (694, 6) (695, 5) (696, -7) (697, -8) (698, -2) (699, 34) (700, 7) (701, 18) (702, 25) (703, 25) (704, 13) (705, 8) (706, 10) (707, 15) (708, 8) (709, 4) (710, 20) (711, 43) (712, 20) (713, 5) (714, 2) (715, 15) (716, 8) (717, -1) (718, 18) (719, 6) (720, -7) (721, 19) (722, 22) (723, -1) (724, 37) (725, 26) (726, 13) (727, 16) (728, 9) (729, -8) (730, -12) (731, -11) (732, 42) (733, 26) (734, 4) (735, 10) (736, 19) (737, -11) (738, 3) (739, 11) (740, 9) (741, 10) (742, 6) (743, 4) (744, 9741) (745, 21) (746, 2519) (747, 12) (748, 311) (749, -3) (750, -10) (751, 2) (752, -8) (753, 20) (754, 10) (755, 16) (756, 1) (757, 1) (758, 10) (759, 19) (760, -135) (761, 10) (762, -11) (763, -2) (764, -8) (765, 3) (766, 18) (767, -9) (768, 4) (769, 3) (770, 10) (771, -11) (772, 6) (773, -5) (774, -110) (775, 1421) (776, -5) (777, 15) (778, -22907) (779, 5) (780, -59) (781, -18) (782, 15) (783, -8) (784, 2) (785, -3) (786, 1) (787, 16) (788, 15) (789, 9) (790, -10) (791, -4) (792, 0) (793, 14) (794, 8) (795, 3) (796, -3) (797, 6) (798, -8) (799, 7) (800, 15) (801, 47977) (802, 13) (803, 14) (804, 20) (805, -5) (806, 8) (807, 14) (808, -11) (809, -11) (810, -8) (811, -4) (812, 4) (813, 19) (814, -4) (815, 22) (816, 5) (817, -5) (818, 14) (819, -5) (820, 20) (821, 9) (822, 12) (823, 1) (824, 4) (825, -4) (826, 13) (827, 17) (828, 7) (829, -6) (830, 10) (831, 3) (832, 1) (833, -3) (834, -1) (835, 17) (836, 5) (837, 18) (838, 48000) (839, 8) (840, 32) (841, 16) (842, 50) (843, 48000) (844, 5) (845, 20) (846, 2) (847, 2) (848, -4) (849, -4) (850, 1) (851, -7) (852, 52) (853, 19) (854, -3) (855, 5) (856, 1) (857, 21) (858, 28) (859, -17) (860, 11) (861, 1) (862, 28) (863, 6) (864, -6) (854, -11) (855, -10) (856, -12) (857, 17) (858, 9) (859, 15) (860, 2) (861, -2) (862, -5) (863, -1) (864, 10) (854, 7) (855, 17) (856, 13) (857, 14) (858, -5) (859, 27) (860, 13) (861, 22) (862, -4) (863, 25) (864, -35) 
